svm_type c_svc
kernel_type rbf
gamma 0.03125
nr_class 6
total_sv 72
rho -0.020350867315702761 -0.24617136274744778 -0.41565855937460344 0.062329832185172324 -0.25613798413405259 -0.2694245029560865 -0.37863780372929529 0.083676844067607128 -0.26968050360467993 -0.035391158328543254 0.29905887384308344 0.047332304155214111 0.40280898616158067 0.25781250049545229 -0.32589383968302371
label 15 16 8 13 10 12
nr_sv 12 12 12 12 12 12
SV
0.84093432056448358 0.52670583422731809 0.81694236780736218 0.77996121471714008 0.73909602039387223 1:-0.874766 2:-0.923679 3:-1 4:-0.941632 5:-0.957902 6:-0.974617 7:-1 8:-0.82939 9:-0.885337 10:-0.882353 11:-0.269406 12:-0.677104 13:-0.262765 14:0.547713 15:-0.0239726 16:-0.0763209 17:-0.416096 18:-0.375342 19:-1 20:-0.979153 21:-0.828198 22:-0.966514 23:-0.927163 24:-1 25:-0.842869 26:-0.949772 27:-0.859311 28:-0.958074 29:-0.872016 30:-0.859311 31:-0.360731 32:-0.691781 33:-0.632674 34:-1 35:-0.809714 36:-0.944814 37:-0.69417 38:-0.561644 39:0.235445 40:1 41:-0.933587 42:-0.874801 43:-1 44:-0.936438 45:-0.899543 46:-0.950846 47:-1 48:-0.913002 49:-0.938356 50:-0.466709 51:-0.532254 52:-0.543968 53:1 54:1 55:-0.287671 56:-0.854697 57:-0.785037 58:-0.608611 59:-0.595268 60:-0.830155 61:-0.795232 62:-0.809198 63:-0.900642 64:-0.953532 65:-0.228662 66:0.928653 67:1 68:-0.660496 69:-0.586758 70:-0.688238 71:-0.381486 72:-0.919971 73:-0.741683 74:-0.91942 75:-0.814307 76:-0.881084 77:-1 78:-0.94804 79:-0.954139 80:-0.986671 81:-0.960951 82:-0.662581 83:-0.818493 84:-0.958524 85:-1 86:-0.905822 87:-0.957339 88:-0.954795 89:-0.944152 90:-0.875408 91:-0.949171 92:-0.347768 93:0.272945 94:1 95:-0.838297 96:-0.340048 97:-0.73913 98:-1 99:-0.849315 100:-0.873092 101:-0.910771 102:-0.858447 103:-0.798736 104:-0.817889 105:-0.496575 106:-0.540117 107:-0.887842 108:-0.610116 109:-0.762557 110:1 111:0.0285884 112:-0.938552 113:-0.626639 114:-0.821918 115:-0.300044 116:-0.843444 117:-0.946786 118:-1 119:-0.937785 120:-0.801495 121:-0.810722 122:-0.962329 123:-1 124:-0.878356 125:-0.9531 126:-0.947623 127:-0.954338 128:-0.968231 129:-0.906471 130:-1 131:-1 132:-0.959319 133:-1 134:-0.916096 135:-0.849117 136:-0.523288 137:-0.561644 138:1 139:-0.5398 140:-0.541478 141:-0.809422 142:-0.776174 143:-0.790785 144:-1 145:-0.694211 146:0.0702607 147:0.383562 148:0.630137 149:-0.572603 150:-0.466105 151:-0.572925 152:-0.319349 153:-0.892368 154:-0.628892 155:-1 156:-0.954927 157:-0.877239 158:-0.934485 159:-0.865345 160:-0.931576 161:-0.85199 162:-0.976675 163:-0.856164 164:-0.958469 165:-0.949947 166:-0.947246 167:-1 168:-0.930298 169:-0.579018 170:-0.664384 171:1 172:1 173:-0.534526 174:0.232877 175:-0.53589 176:-1 177:-0.884089 178:-0.740045 179:-0.78888 180:-0.859783 181:-0.674062 182:-0.905822 183:-0.911362 184:-0.776256 185:-0.950228 186:-0.903196 187:-0.943379 188:-0.943493 189:-0.932509 190:-1 191:-0.816047 192:-0.912329 193:-0.455479 194:-0.163699 195:-0.782013 196:-0.0291096 197:-0.423937 198:-0.136391 199:0.506849 200:-0.504907 
0.99609456430456322 0.76777096594085703 0.53688045220048153 0.86217429804848256 0.72591275745954364 1:-0.496145 2:-0.696104 3:-0.745455 4:-1 5:-0.944124 6:-0.93262 7:-0.907273 8:-0.886777 9:-0.923906 10:-0.84385 11:-0.90303 12:1 13:-1 14:-1 15:-0.352273 16:-0.233766 17:0.268182 18:-0.447273 19:-0.666434 20:-0.620757 21:-0.852021 22:-0.822222 23:-0.903326 24:-0.614876 25:-0.374332 26:1 27:-0.906634 28:-1 29:-0.943377 30:-0.906634 31:-1 32:-0.918182 33:-0.939057 34:-0.897455 35:-0.93686 36:-0.926753 37:-0.729387 38:0.381818 39:-0.180114 40:-0.305301 41:-0.864355 42:-0.889218 43:-0.863102 44:-0.831273 45:-0.933333 46:-0.934759 47:0.0633229 48:-0.538118 49:-0.263636 50:0.258351 51:-0.896529 52:-0.697361 53:-0.938266 54:-0.535455 55:-0.810909 56:-0.935714 57:-0.61958 58:-0.87013 59:-0.0330579 60:0.0105367 61:-0.565541 62:-0.746753 63:-0.956041 64:-0.876649 65:-0.936014 66:-0.917424 67:-0.863869 68:0.0943489 69:-0.670909 70:1 71:0.641873 72:-0.68134 73:-0.914286 74:-0.893048 75:-0.753535 76:-0.921083 77:-0.760668 78:-0.655172 79:-0.878261 80:-0.971868 81:-0.934451 82:-0.776077 83:-0.638636 84:-0.724747 85:-0.633333 86:1 87:-1 88:-0.94 89:-1 90:-0.944877 91:-1 92:-0.927859 93:-0.758636 94:-0.834091 95:-0.856917 96:-0.93262 97:-0.884585 98:1 99:-0.6 100:-0.629575 101:-0.364882 102:-0.859091 103:-0.821911 104:-0.214439 105:-0.443182 106:-0.145455 107:-0.925568 108:-1 109:-0.789899 110:-0.834091 111:-0.565613 112:-0.347532 113:0.699033 114:-0.822727 115:-0.941935 116:-0.688312 117:-1 118:-0.781818 119:-0.752273 120:-0.827927 121:-0.967499 122:-0.95 123:-0.870588 124:-0.838545 125:-1 126:-0.721925 127:1 128:-0.915667 129:-0.751724 130:-1 131:-0.826364 132:-0.838017 133:-0.819192 134:-0.888636 135:-0.849802 136:-0.859394 137:-0.854545 138:-0.227158 139:-0.833415 140:-0.030278 141:-0.985037 142:-0.940584 143:-1 144:-0.830769 145:-0.492669 146:-0.797067 147:-0.868831 148:-0.872727 149:-0.716364 150:-0.734266 151:-0.659893 152:-0.598485 153:1 154:0.0672176 155:-0.549091 156:-0.880352 157:-0.837063 158:-0.826087 159:-0.761702 160:-0.833368 161:-0.741561 162:-0.969042 163:-1 164:-0.779509 165:-0.534965 166:-0.0197292 167:-0.621818 168:-0.16738 169:-0.600887 170:-0.70303 171:-0.620779 172:-0.517355 173:-0.862709 174:-0.727273 175:-1 176:-0.938889 177:1 178:-0.482452 179:-1 180:-0.913959 181:-0.435001 182:-0.8125 183:1 184:-0.950505 185:-0.933939 186:-0.871515 187:-0.849697 188:-0.925 189:-0.910421 190:-0.892045 191:-0.0233766 192:-0.650909 193:-0.518182 194:-0.798182 195:-0.566008 196:-0.642045 197:-0.910048 198:-0.403953 199:-0.266667 200:-0.735148 
1.0700241968432656 0.51742956666664253 0.72847120310142643 0.77455203114656157 0.6746684782046285 1:-0.637997 2:-0.700863 3:-0.436242 4:-0.313685 5:-0.133737 6:-0.801026 7:0.0268456 8:0.337401 9:-0.382053 10:-0.596526 11:-0.892617 12:-0.57814 13:-0.729103 14:-0.816176 15:-0.787472 16:-0.830297 17:-0.791946 18:-0.795973 19:-0.917914 20:-0.852951 21:-0.697219 22:-0.934377 23:-1 24:-0.943136 25:-0.923016 26:-0.064877 27:-0.448576 28:-0.958918 29:-0.707383 30:-0.862144 31:-0.87472 32:-0.395973 33:-0.775043 34:-0.772886 35:-0.533862 36:-0.89185 37:-0.950055 38:-0.892617 39:0.396812 40:0.200428 41:-0.994156 42:-1 43:-0.974734 44:-1 45:-0.950783 46:-0.566522 47:-0.558436 48:0.747557 49:0.389262 50:-0.883877 51:-0.770836 52:0.675687 53:-0.589824 54:-0.0691275 55:-0.651007 56:-0.857622 57:-0.789365 58:-0.904123 59:-0.920683 60:-0.929667 61:-0.913465 62:-0.887824 63:-0.967547 64:-0.681274 65:-0.52762 66:-0.512304 67:-0.799002 68:-0.477236 69:-0.63557 70:0.0691969 71:1 72:-0.68633 73:-0.810163 74:-0.605211 75:-0.454139 76:0.0486934 77:-1 78:-1 79:-1 80:-0.898942 81:-0.962581 82:-0.917344 83:-0.822148 84:-0.959359 85:-1 86:-0.953859 87:-1 88:-0.955705 89:-0.726381 90:0.180143 91:-0.900389 92:-0.840225 93:-0.881208 94:-0.908138 95:-0.894368 96:-0.751283 97:-0.26155 98:-0.105145 99:0.771812 100:-0.299187 101:0.324032 102:-0.653244 103:-0.769919 104:-0.330833 105:-0.917785 106:-0.369128 107:-0.615352 108:-0.617966 109:-0.922446 110:-1 111:-1 112:-0.939789 113:-0.947737 114:-0.563758 115:-0.0140723 116:-0.923298 117:-0.947858 118:-0.919463 119:-0.756152 120:-0.881088 121:-0.898674 122:-0.963087 123:-1 124:-0.821208 125:-0.908088 126:-0.897355 127:0.297539 128:-0.937741 129:-1 130:-1 131:-1 132:-1 133:-0.955506 134:-0.83557 135:-1 136:-0.844295 137:-0.946309 138:0.786084 139:-0.508072 140:-0.394315 141:-0.995792 142:-1 143:-0.948749 144:-0.937532 145:-1 146:-1 147:-1 148:-0.530201 149:-0.581208 150:-0.215281 151:-0.414133 152:-0.629474 153:-0.332055 154:1 155:-0.375839 156:-0.337519 157:-0.699277 158:-0.550627 159:-0.956019 160:-0.827354 161:-0.896407 162:-0.977145 163:-0.718121 164:-0.674443 165:-0.852865 166:-0.689847 167:-0.930201 168:0.0927754 169:-0.174988 170:-0.342282 171:-0.253436 172:-0.703071 173:-0.847966 174:-0.731544 175:-0.805101 176:-0.864653 177:0.0221993 178:-0.617918 179:-0.586261 180:-0.350108 181:-0.0593964 182:-0.861577 183:-0.913146 184:-0.123043 185:-0.95123 186:-0.810291 187:-0.722595 188:-0.833893 189:-0.933868 190:-0.442114 191:-0.279003 192:-0.656376 193:-0.733221 194:-0.702013 195:-0.786402 196:0.79698 197:-0.203108 198:-0.932302 199:-0.950783 200:-0.809713 
1.1473758088135022 0.86762453260853611 1.0609710768130989 1.267730774442543 1.2713687923729542 1:-0.600557 2:-0.0799476 3:-0.743119 4:-0.687276 5:0.296934 6:-0.490016 7:-0.906422 8:-0.771476 9:-0.923208 10:-0.921209 11:-1 12:-0.927916 13:-0.876564 14:-0.811538 15:-0.41896 16:-0.536042 17:-0.857798 18:-0.581651 19:-0.738179 20:-0.385468 21:-0.665602 22:-0.910296 23:-0.95122 24:-0.922269 25:-0.894765 26:-0.865443 27:-0.905777 28:-0.943842 29:1 30:-0.905777 31:-0.914373 32:-0.917431 33:-0.938498 34:-1 35:-0.426522 36:-0.852163 37:-0.590356 38:0.321101 39:-0.236239 40:-0.614466 41:-0.943215 42:-0.888201 43:-0.896384 44:-0.957431 45:-0.59633 46:-0.20993 47:-0.865865 48:-0.0677611 49:-0.587156 50:-0.603158 51:-0.89558 52:-0.541876 53:-0.6885 54:-0.933028 55:-0.618349 56:0.557012 57:0.247706 58:-0.737877 59:-1 60:-0.959921 61:-0.716548 62:-0.539974 63:-0.556381 64:-0.688793 65:-0.418843 66:1 67:0.579864 68:-0.870072 69:-0.833945 70:-0.652009 71:-0.585766 72:-0.892805 73:-0.913499 74:-0.892067 75:-0.875637 76:-0.920359 77:-0.758472 78:-1 79:-1 80:-0.971318 81:-0.82501 82:-0.661033 83:-0.513761 84:1 85:-0.925994 86:-1 87:-0.485714 88:-0.697248 89:-0.62597 90:-0.888743 91:-0.863834 92:-0.0535661 93:0.0555046 94:-0.958142 95:-0.855604 96:-0.932002 97:-0.922351 98:-0.877676 99:-0.697248 100:-0.921702 101:-0.947028 102:-0.620795 103:-0.685486 104:-0.817053 105:-0.100917 106:0.231979 107:-0.474197 108:-0.651847 109:-0.469929 110:-0.832569 111:-0.812126 112:-0.835387 113:-0.928557 114:-1 115:-1 116:-0.790301 117:-0.928723 118:-0.889908 119:1 120:0.711184 121:-0.909803 122:-0.444954 123:-0.608203 124:-0.674128 125:0.319235 126:-0.929843 127:-0.938838 128:-1 129:-0.937362 130:-0.622543 131:-0.123853 132:0.253267 133:-1 134:-1 135:-0.89895 136:-0.858104 137:-0.889908 138:-0.89827 139:-0.719812 140:-0.807254 141:-0.404133 142:-0.700197 143:-0.859883 144:-0.914608 145:-0.385617 146:0.43356 147:-0.338139 148:-0.678899 149:-0.785321 150:-0.284874 151:-0.0847275 152:-0.189602 153:-0.423329 154:-1 155:-0.943119 156:-0.879254 157:-0.917784 158:-0.824491 159:-0.879758 160:-0.940248 161:-0.739011 162:-0.875031 163:-0.614679 164:-0.66623 165:-0.865914 166:-0.364045 167:0.765138 168:-0.159741 169:-0.113896 170:-0.775229 171:-0.872433 172:-0.837642 173:-0.930725 174:-0.816514 175:-0.911193 176:-0.753313 177:-0.844742 178:-0.825901 179:-1 180:-0.912979 181:-0.550939 182:-0.873853 183:-0.881274 184:-1 185:-0.866667 186:-0.870336 187:-0.772477 188:0.438073 189:0.446409 190:-0.891055 191:-1 192:-0.882569 193:-1 194:-0.898165 195:-1 196:-0.855505 197:0.0893288 198:-0.352214 199:-0.327217 200:-0.675037 
1.3919522085313043 0.87428052899410147 1.4854814753650925 1.1141639493258579 1.3029191801287472 1:-0.706902 2:-0.922619 3:-0.805556 4:-0.763285 5:-0.871951 6:-0.125 7:-0.0791667 8:0.383838 9:-0.651235 10:-0.701797 11:-0.851852 12:-0.945437 13:-0.953283 14:-0.952448 15:-0.835069 16:-0.824405 17:-0.407986 18:-0.313889 19:-0.801816 20:-0.540273 21:-0.54565 22:-0.796296 23:-0.852304 24:-0.823485 25:0.27451 26:-0.0833333 27:0.141141 28:-0.957492 29:-0.78373 30:-0.429429 31:-0.287037 32:-0.125 33:-0.441358 34:-0.53 35:-0.662374 36:-0.888095 37:-0.94832 38:-0.888889 39:-0.903646 40:-0.952118 41:-0.993136 42:-0.957687 43:-0.895425 44:-0.871111 45:-0.643519 46:-0.152778 47:-0.644636 48:-0.514864 49:-0.125 50:0.381783 51:0.264646 52:0.155914 53:-0.528424 54:-0.594444 55:-0.855556 56:-0.901786 57:-1 58:-0.900794 59:-0.835859 60:-0.876897 61:-0.674504 62:-0.96131 63:-0.899262 64:-0.764434 65:-0.511218 66:-0.243056 67:-0.0641026 68:0.0818318 69:-0.162037 70:-0.157088 71:-0.247475 72:-0.350877 73:-1 74:-1 75:-0.905864 76:-0.939716 77:-1 78:-1 79:-0.953502 80:-0.71089 81:-0.795636 82:-0.914474 83:-0.815972 84:-1 85:-0.887963 86:-0.904514 87:-0.870238 88:-0.5875 89:-0.547009 90:-0.83157 91:-0.381579 92:-0.173387 93:0.84375 94:-0.651476 95:-0.8907 96:-0.948529 97:-0.911836 98:-0.953704 99:0.0694444 100:-0.274149 101:-0.825771 102:-0.569444 103:-0.69391 104:-0.538399 105:-0.149306 106:-0.0674603 107:-0.431424 108:0.120014 109:-0.277778 110:-0.535301 111:-0.668176 112:-0.62619 113:-0.513298 114:-0.638889 115:-0.955645 116:-0.84127 117:-1 118:-0.916667 119:-1 120:-0.720733 121:-0.851037 122:-0.923611 123:-0.851716 124:-0.938333 125:-0.952448 126:-0.575163 127:-0.907407 128:-0.774527 129:0.0431034 130:1 131:-0.955787 132:-0.917508 133:-0.769805 134:-0.659722 135:-0.885266 136:-0.838889 137:-0.944444 138:-0.948664 139:-0.745495 140:0.384755 141:-0.994738 142:-1 143:-0.469697 144:-0.612179 145:0.705197 146:-0.689964 147:-0.34871 148:-0.902778 149:-0.675 150:-0.255698 151:-0.30719 152:0.30353 153:-0.381614 154:-0.623737 155:-0.741667 156:-0.862903 157:-0.813301 158:-0.933575 159:-1 160:-0.985215 161:-0.552382 162:-0.952703 163:-0.489583 164:-0.705247 165:-0.188034 166:-0.839539 167:-0.747222 168:-0.434641 169:-0.634146 170:-0.546296 171:-0.710317 172:-0.631313 173:-0.947562 174:-0.861111 175:-1 176:-1 177:-1 178:-0.868217 179:-0.678922 180:0.938762 181:-0.577086 182:-0.665799 183:-0.865196 184:-0.924383 185:-0.697222 186:-0.0185185 187:-0.655556 188:-0.65625 189:-0.452575 190:-0.587674 191:-0.53373 192:-0.0222222 193:-0.447917 194:-0.691667 195:-0.281703 196:-0.617188 197:-0.965643 198:-0.964976 199:-0.134259 200:-0.149572 
1.3050401097316702 0.78328257074438956 1.379866715456596 1.0226019967955853 1.1856798806572044 1:-0.956429 2:-0.923679 3:-0.808219 4:-1 5:-0.747411 6:-0.847703 7:-0.860274 8:-0.744085 9:-0.656012 10:1 11:-0.159817 12:-0.677104 13:-0.308842 14:-0.671697 15:-0.728881 16:-0.249511 17:-0.787671 18:-0.89589 19:-0.944152 20:-0.719787 21:-0.552355 22:-0.966514 23:-0.817908 24:-0.76787 25:-0.685737 26:-0.799087 27:0.758608 28:-0.790369 29:-0.872016 30:-0.648278 31:-0.616438 32:-0.753425 33:-0.816337 34:-0.304658 35:-0.238854 36:0.434834 37:-0.490284 38:-0.890411 39:-0.809932 40:-0.986726 41:-0.96357 42:-0.916534 43:-0.974214 44:-0.936438 45:-0.748858 46:-0.803384 47:-0.39915 48:-0.826003 49:-0.815068 50:-0.525964 51:0.169365 52:-0.0879364 53:-0.72093 54:-0.5 55:-0.430137 56:-0.709393 57:0.361433 58:0.369863 59:-0.433375 60:-0.586283 61:-0.795232 62:-0.313112 63:-0.536327 64:-0.395917 65:0.494468 66:0.493151 67:-0.230769 68:-0.660496 69:-0.834703 70:-0.480397 71:-1 72:-1 73:-0.935421 74:-0.91942 75:-1 76:-1 77:-0.939894 78:-1 79:-0.954139 80:-0.986671 81:-0.79901 82:-0.915645 83:-0.909247 84:-0.917047 85:-0.834247 86:-0.952911 87:-0.914677 88:-0.954795 89:-1 90:-0.916938 91:-0.949171 92:-0.945647 93:-0.878767 94:-0.90625 95:-0.568791 96:0.0660757 97:1 98:-0.360731 99:-0.547945 100:-0.873092 101:-0.44422 102:-0.893836 103:-0.664559 104:-0.681305 105:-0.160959 106:-0.0802348 107:-0.55137 108:-0.805058 109:-0.683409 110:-0.5 111:-0.345444 112:-0.385519 113:-0.359953 114:-0.910959 115:-0.825011 116:-0.452055 117:-0.893572 118:-0.753425 119:-0.875571 120:-0.954518 121:-0.981469 122:-0.962329 123:-1 124:-1 125:-0.9531 126:-1 127:-0.954338 128:-1 129:-1 130:-0.77456 131:-0.869178 132:-0.877958 133:-0.682141 134:-0.874144 135:-0.811396 136:-0.364384 137:-0.260274 138:0.0126582 139:0.255091 140:-0.64818 141:-0.964211 142:-0.820939 143:-0.895392 144:-0.808746 145:-0.46487 146:-0.46487 147:-0.604697 148:-0.712329 149:-0.732877 150:-0.332631 151:0.7083 152:-0.0924658 153:-0.820613 154:-0.628892 155:-0.617808 156:-0.414052 157:-0.386196 158:-0.737939 159:-0.775576 160:-0.904569 161:-0.516894 162:-0.533506 163:-0.424658 164:-0.335508 165:-0.149104 166:-0.0504226 167:-0.572603 168:-0.0938759 169:-0.639158 170:-0.72032 171:-0.666667 172:-0.69697 173:-0.793123 174:-0.931507 175:-1 176:-1 177:-1 178:-1 179:-1 180:-0.980581 181:-0.946097 182:-1 183:-0.955681 184:-1 185:-0.950228 186:-0.709589 187:-0.886758 188:-0.943493 189:-0.865018 190:-0.918664 191:-1 192:-0.561644 193:0.361301 194:-0.163699 195:-0.400536 196:-0.784247 197:-0.559481 198:0.174509 199:0.105023 200:-0.247348 
1.017847226834373 0.54487419376457957 0.83494884312312811 0.97850521305493177 0.89008576263718864 1:-0.823266 2:-0.899614 3:-0.621622 4:-0.923228 5:-0.944628 6:-0.899841 7:-0.632432 8:-0.775594 9:-0.472139 10:-0.690514 11:-0.855856 12:-0.646075 13:1 14:-0.50649 15:-0.0015015 16:-0.392535 17:-0.86036 18:-0.794595 19:-0.926542 20:-0.794949 21:-0.218733 22:-0.647648 23:-0.616788 24:-0.694676 25:-0.689984 26:-0.867868 27:-0.722425 28:-0.172809 29:-0.83166 30:-1 31:-0.915916 32:-0.837838 33:-0.818819 34:-0.796757 35:-0.874857 36:-0.927413 37:-0.865912 38:-1 39:1 40:-0.577489 41:-0.74748 42:-0.945108 43:-0.898251 44:-0.581982 45:-0.405405 46:-0.612083 47:-0.0121156 48:-1 49:-0.918919 50:-1 51:-1 52:0.199651 53:-0.51058 54:0.446847 55:0.311712 56:-1 57:-0.811504 58:-1 59:-0.78706 60:-0.896945 61:-0.950809 62:-0.949807 63:-0.956437 64:-1 65:-1 66:-1 67:-0.730192 68:-0.0430972 69:-0.239039 70:-0.111525 71:0.301665 72:1 73:-0.830116 74:-0.788023 75:-0.755756 76:-0.843588 77:-0.683765 78:-0.726623 79:-0.638073 80:-0.793931 81:-0.828918 82:-1 83:-0.880631 84:-0.945445 85:-0.491291 86:-0.380631 87:-0.607207 88:0.248649 89:-0.853084 90:-0.836122 91:-0.665718 92:-1 93:-0.92027 94:-0.917793 95:-0.929103 96:-0.866455 97:-0.885625 98:-0.63964 99:0.486486 100:-0.00393125 101:-0.1903 102:-0.674174 103:-0.691153 104:-0.760466 105:-0.668919 106:-0.758044 107:-0.852477 108:-0.65812 109:-0.687688 110:-0.89039 111:-0.938504 112:-0.515058 113:-0.508913 114:-0.648649 115:-0.827376 116:-0.279279 117:0.049896 118:-0.567568 119:-0.836336 120:-0.829756 121:-0.687277 122:-0.801802 123:-0.615262 124:1 125:-0.753245 126:-0.793323 127:-0.81982 128:-0.874641 129:-1 130:-0.925869 131:-0.942643 132:-0.946492 133:-0.761094 134:-0.88964 135:-0.90077 136:-0.93033 137:-0.387387 138:-0.400616 139:-0.614804 140:-0.88129 141:-0.618935 142:-0.411197 143:-0.518428 144:-0.916147 145:-0.899448 146:-0.798896 147:-0.545045 148:-0.495495 149:0.616216 150:-0.122199 151:0.685215 152:-0.10473 153:-0.85843 154:-0.837292 155:-1 156:-1 157:-1 158:-1 159:-1 160:-0.977075 161:-0.909349 162:-0.969321 163:-0.905405 164:-1 165:-1 166:-0.930611 167:-0.859459 168:-0.358241 169:-0.0507581 170:0.03003 171:-0.624196 172:-0.60142 173:-0.795918 174:0.171171 175:0.220901 176:-0.757758 177:-0.84754 178:-0.401634 179:-0.0280869 180:-0.597148 181:-0.201881 182:-0.938063 183:-0.766826 184:-1 185:-1 186:-0.745345 187:-0.702102 188:-0.554054 189:-0.0235113 190:0.176802 191:-0.274131 192:-0.308108 193:-0.522523 194:1 195:0.505288 196:-0.716216 197:-0.955429 198:-1 199:-0.933934 200:-0.963561 
1.3890083244460416 0.77776849550189819 1.2337794239789928 1.1445626229929891 1.215265128764923 1:-0.700653 2:-0.579515 3:-0.735849 4:-0.919606 5:0.275656 6:-1 7:-0.903774 8:-1 9:-1 10:-0.513873 11:-0.798742 12:0.0377358 13:-0.936535 14:-0.612408 15:-0.32783 16:-0.443396 17:-0.415094 18:-0.426415 19:-0.730769 20:-0.903301 21:-0.370194 22:-0.953878 23:-0.899678 24:-0.840137 25:-0.783574 26:-0.861635 27:-0.806221 28:-0.826758 29:-0.88248 30:0.550229 31:-0.471698 32:-1 33:-0.936758 34:-0.893585 35:-0.934477 36:-0.847978 37:-0.508556 38:-0.169811 39:-0.541863 40:0.371008 41:-0.817052 42:-0.885037 43:-0.680355 44:-0.868679 45:-0.72327 46:-0.526082 47:1 48:0.0784508 49:-0.575472 50:-0.510312 51:-0.677873 52:-1 53:-1 54:-0.931132 55:-0.901887 56:-0.933288 57:-0.703919 58:-0.730458 59:-0.554031 60:-0.890893 61:-0.947213 62:-1 63:-0.908765 64:-1 65:-0.933599 66:-0.657233 67:-0.646831 68:0.670066 69:-0.316981 70:-0.28432 71:-0.488851 72:0.102284 73:-0.644205 74:-0.778024 75:-0.616352 76:-0.918105 77:-0.668849 78:-0.355888 79:-0.873667 80:-0.782706 81:-0.707346 82:-0.65144 83:-0.875 84:-0.942872 85:-0.923899 86:-0.935142 87:-0.82372 88:-0.875472 89:1 90:-0.942797 91:-0.85998 92:-0.700548 93:-0.165094 94:-0.698703 95:-0.406071 96:-0.440622 97:-0.840306 98:-0.559748 99:-0.584906 100:-0.564151 101:-0.907147 102:-0.902516 103:-0.907596 104:-0.623751 105:-0.191038 106:-0.746631 107:-0.691038 108:-0.373488 109:-0.345912 110:-0.71305 111:-0.613618 112:-0.407547 113:-0.853071 114:0.716981 115:-0.698722 116:-0.568733 117:-0.926705 118:-0.54717 119:-0.828616 120:-0.820262 121:-0.906566 122:-0.740566 123:-0.932852 124:-0.832453 125:-0.677007 126:-0.711432 127:0.761006 128:-0.693697 129:-0.677944 130:-0.844744 131:-0.819811 132:-0.103488 133:-0.874913 134:-0.884434 135:-0.89609 136:-0.781132 137:-0.886792 138:-0.825651 139:-0.769505 140:-0.727703 141:-0.855567 142:-0.876685 143:0.440823 144:-0.385341 145:-0.368229 146:-0.262934 147:-0.795822 148:-0.40566 149:-0.632075 150:-0.356555 151:-0.764706 152:-0.895833 153:-0.851752 154:-0.744425 155:-0.824528 156:-0.813755 157:-0.830914 158:-0.819524 159:-0.938177 160:-0.715009 161:-0.846458 162:-0.967874 163:-0.603774 164:-0.828392 165:-0.793179 166:-0.927338 167:-0.901887 168:-0.807991 169:-0.751496 170:-0.152516 171:0.442947 172:-0.415666 173:-0.358876 174:-0.0566038 175:-0.452075 176:-0.619497 177:-0.760522 178:-0.820974 179:-0.709212 180:-0.743544 181:-0.537189 182:-0.870283 183:-0.877913 184:-1 185:-0.79434 186:-0.866667 187:-0.844025 188:-0.84434 189:-0.814082 190:-0.887972 191:0.266846 192:0.328302 193:1 194:-0.0575472 195:-0.474569 196:-0.479953 197:-0.673287 198:-0.57178 199:-0.654088 200:-0.724398 
0.91890373526617442 0.63728042259804429 0.53915747264719993 0.88439944554247552 0.76640717701373406 1:-0.435929 2:-0.887446 3:-0.858586 4:-0.827844 5:-0.937916 6:-0.962567 7:-0.89697 8:-0.62259 9:-0.830902 10:-0.73975 11:-0.784512 12:-0.920635 13:0.0192837 14:-0.100839 15:-0.520202 16:-0.744589 17:-0.608586 18:0.612121 19:-0.752914 20:-0.767381 21:-0.729981 22:-0.802469 23:-0.946292 24:-0.0585859 25:-0.768271 26:-1 27:-0.89626 28:-0.258035 29:-0.496681 30:-0.79252 31:-0.905724 32:1 33:-0.593715 34:-1 35:-1 36:-1 37:-1 38:-1 39:-1 40:0.221092 41:0.0818801 42:-1 43:-1 44:-1 45:-1 46:-1 47:-1 48:-1 49:-0.909091 50:-1 51:-1 52:-0.663734 53:-0.382664 54:-0.705051 55:-0.894949 56:1 57:-0.365967 58:-0.278499 59:-0.522498 60:-0.0901649 61:-0.94157 62:-0.943723 63:-1 64:-0.931472 65:-0.857809 66:-0.724747 67:-0.924372 68:-0.928474 69:-0.390572 70:0.532567 71:-0.361494 72:0.652313 73:1 74:-0.643494 75:-0.863075 76:-0.824629 77:-1 78:-0.846743 79:-0.932367 80:-0.564975 81:-0.564278 82:-0.751196 83:-0.598485 84:-0.938833 85:-0.837037 86:-0.930556 87:-0.811255 88:1 89:-1 90:-1 91:-0.92504 92:-0.759531 93:-0.821212 94:-0.907828 95:-0.920509 96:-0.925134 97:-0.957254 98:0.750842 99:0.333333 100:-0.857482 101:0.517435 102:-0.895623 103:-0.950531 104:-0.932858 105:-1 106:-0.864358 107:-0.834596 108:-0.52085 109:-0.766554 110:-0.938552 111:-1 112:-0.90938 113:-1 114:-0.737374 115:1 116:-0.76912 117:-0.843046 118:-0.757576 119:-0.908249 120:-0.80536 121:-0.646443 122:-0.944444 123:-0.856209 124:-1 125:-0.861668 126:-0.922757 127:-0.93266 128:-0.812594 129:1 130:-1 131:-0.742761 132:-0.940006 133:-0.866068 134:-0.938131 135:-0.888742 136:-0.921886 137:-0.959596 138:-0.253292 139:0.048867 140:-0.785599 141:-0.934817 142:-0.735931 143:-0.922865 144:-0.811966 145:-0.661779 146:0.127403 147:0.238817 148:0.272727 149:-0.684848 150:-0.60632 151:-0.370172 152:-0.219276 153:-0.57672 154:-0.81757 155:-0.937374 156:-1 157:-0.818959 158:-0.903382 159:-0.933806 160:-0.853283 161:-0.957766 162:-0.965602 163:-1 164:-1 165:-1 166:-1 167:-0.947475 168:-0.588829 169:-0.645233 170:-0.752525 171:-0.719096 172:-0.016835 173:-0.313544 174:0.010101 175:-0.12 176:-0.796296 177:-0.74359 178:-0.520789 179:0.245395 180:0.285559 181:-0.903047 182:-1 183:-1 184:-0.890011 185:-1 186:-0.428956 187:-0.415488 188:1 189:-1 190:-0.880051 191:-0.728716 192:0.0343434 193:0.606061 194:-0.439394 195:-0.919631 196:-1 197:-0.950027 198:-0.64339 199:-0.333333 200:-0.133745 
1.0490658837415734 0.97123521116370359 0.94510187498274634 0.90350359742618869 0.96806172165264048 1:-0.721557 2:-0.605563 3:-0.752212 4:-0.698346 5:-0.836823 6:-0.803227 7:-0.729204 8:-0.559131 9:1 10:-0.695992 11:-0.339233 12:-0.37421 13:-0.523733 14:-0.515224 15:-0.789823 16:-0.776233 17:-0.931416 18:-0.730973 19:-0.963921 20:-0.966529 21:-0.589581 22:-0.783677 23:-0.200086 24:0.274658 25:0.0150963 26:-0.740413 27:-0.545563 28:-0.62081 29:-0.669279 30:-0.363789 31:-0.587021 32:-0.283186 33:-0.822026 34:-0.800354 35:-0.754143 36:-0.928698 37:-0.934143 38:-0.858407 39:-1 40:-0.933385 41:-0.984796 42:-0.946079 43:-0.933368 44:-0.753628 45:-0.610619 46:-0.55544 47:-0.547147 48:-0.606583 49:-0.283186 50:-0.464087 51:-0.0934835 52:0.0311162 53:-0.338959 54:-0.418584 55:-0.447788 56:-0.812263 57:-0.72226 58:-0.873578 59:-0.686243 60:-0.584125 61:-0.877285 62:-0.950695 63:-0.786042 64:-0.819885 65:0.308033 66:-0.0353982 67:-0.734967 68:-0.812007 69:-0.145723 70:-0.328654 71:-0.280772 72:-0.276199 73:-0.666245 74:-0.271213 75:-0.760079 76:-1 77:-1 78:-0.932865 79:-1 80:-0.739704 81:-0.414223 82:-0.782021 83:-0.882743 84:-0.946411 85:-1 86:-1 87:-0.94488 88:-0.707965 89:-0.855684 90:-0.624385 91:0.707499 92:-0.789323 93:-0.608407 94:-0.878872 95:-0.512505 96:-0.868818 97:-0.588047 98:0.00294985 99:-0.123894 100:-0.83011 101:-0.878713 102:-0.817109 103:-1 104:1 105:-0.457965 106:-0.643489 107:-0.420354 108:-0.244384 109:-0.386431 110:-0.89233 111:-0.516737 112:-0.682427 113:-0.655432 114:-0.884956 115:-0.660862 116:-0.595449 117:-0.862491 118:-0.681416 119:-0.919617 120:-0.833319 121:-0.638086 122:-0.902655 123:-1 124:-0.921416 125:-1 126:-1 127:-0.941003 128:-0.958953 129:-1 130:-1 131:-1 132:-0.947439 133:-0.882661 134:-0.945796 135:-0.902527 136:-0.315634 137:-0.646018 138:-0.149546 139:1 140:-0.263391 141:-0.906131 142:-1 143:-0.864843 144:-1 145:-1 146:-0.901228 147:-1 148:-1 149:-0.930973 150:-1 151:0.986465 152:-0.0228614 153:-0.443742 154:-0.280772 155:-0.0672566 156:-0.0682272 157:-0.44486 158:-0.153521 159:-0.826021 160:-0.907915 161:-0.85718 162:-0.969864 163:-1 164:-0.946341 165:-0.93533 166:-1 167:-0.953982 168:-1 169:-0.922297 170:-0.927729 171:-0.938475 172:-0.921695 173:-0.665884 174:0.327434 175:0.370619 176:0.606195 177:-0.0265487 178:0.259518 179:-0.454451 180:-0.708697 181:-0.685296 182:-0.634956 183:-0.427382 184:-0.373648 185:0.479056 186:-0.249558 187:-0.780531 188:-0.853982 189:-0.738398 190:-0.894912 191:-0.881163 192:-1 193:-0.765487 194:-0.312389 195:-0.295883 196:-0.303097 197:-0.737308 198:-0.776837 199:-1 200:-0.964561 
1.2479919210754804 0.70718283058934073 0.87529516513610273 1.1271223863486437 1.0266458885409242 1:-0.375712 2:-0.204082 3:1 4:-0.323671 5:-0.365854 6:-0.970588 7:-1 8:-1 9:-0.933568 10:-1 11:-1 12:-1 13:-1 14:-0.78262 15:-0.811508 16:-0.866213 17:0.353175 18:0.326984 19:-0.676435 20:-0.872113 21:-0.875267 22:-0.922399 23:-0.873403 24:-0.798268 25:-0.453782 26:-0.650794 27:-0.59245 28:-0.757095 29:-0.901134 30:0.0596311 31:-0.555556 32:-0.928571 33:-0.73398 34:-1 35:-0.779509 36:0.214966 37:0.181248 38:0.396825 39:-1 40:-0.981381 41:-0.849827 42:-0.951643 43:-1 44:-0.263492 45:-0.243386 46:-0.544351 47:-0.709907 48:-0.445558 49:0.214286 50:-0.6567 51:-0.367677 52:-0.603687 53:-0.461056 54:-0.884127 55:-0.504762 56:-0.77551 57:-0.833944 58:-0.659864 59:-0.81241 60:-0.968736 61:-0.758439 62:-0.823129 63:-0.424352 64:-0.892312 65:-0.888278 66:-0.78373 67:-0.940578 68:-0.662806 69:-0.952116 70:-0.518336 71:-0.0683021 72:0.390977 73:-0.55102 74:0.120448 75:-0.13933 76:-0.311044 77:-0.721412 78:-0.69896 79:-0.84058 80:-0.874671 81:-0.854276 82:-1 83:-0.894841 84:-1 85:-1 86:-0.945437 87:-0.901134 88:-0.895238 89:-0.805861 90:-0.855631 91:-0.35213 92:0.0706605 93:0.12381 94:-0.674107 95:-0.500345 96:-0.0588235 97:-0.529791 98:-0.73545 99:-0.126984 100:-0.807094 101:-0.893346 102:-0.753968 103:-0.922263 104:-0.841737 105:-0.319444 106:-0.0408163 107:-0.415179 108:0.129426 109:-0.724868 110:-0.662037 111:-0.891649 112:-0.643991 113:-0.690983 114:-0.845238 115:-0.138249 116:0.360544 117:-0.506716 118:-0.714286 119:-1 120:-0.853718 121:-0.776844 122:-0.869048 123:-0.943511 124:-0.929524 125:-0.89131 126:-0.939309 127:-0.89418 128:-0.926376 129:0.950739 130:-0.346939 131:-0.848413 132:-0.858586 133:-0.526455 134:-0.416667 135:-0.694042 136:-0.324868 137:-0.84127 138:-0.794655 139:-0.854569 140:-0.897998 141:-0.523924 142:-0.740646 143:-1 144:-0.963065 145:-1 146:-1 147:-0.885488 148:-0.388889 149:-0.257143 150:0.0826211 151:0.583567 152:0.13922 153:-0.584278 154:-0.498316 155:-0.557143 156:-0.895545 157:-1 158:-0.772257 159:-0.947991 160:-0.856127 161:-0.971003 162:-0.972973 163:-1 164:-0.951877 165:-0.942002 166:-1 167:-1 168:-1 169:-1 170:-1 171:0.434618 172:0.825878 173:-0.280855 174:-0.126984 175:-0.231746 176:-0.573192 177:-0.328449 178:-0.322259 179:-0.388422 180:-0.834217 181:-0.931703 182:-1 183:-1 184:-0.95679 185:-0.769312 186:-0.775661 187:-0.212698 188:-0.672619 189:-0.765389 190:-0.246032 191:-0.893424 192:-0.796825 193:-1 194:0.85 195:-0.115942 196:-0.8125 197:-0.92147 198:-0.439614 199:0.455026 200:-0.671843 
1.2684474579813154 0.89519636781636169 1.1290567145469641 0.94416136659164185 1.2196010590945867 1:-0.582027 2:-0.75644 3:-0.540984 4:-0.860299 5:-0.0259896 6:-0.858245 7:-0.219672 8:-0.863885 9:-0.634082 10:-0.765349 11:-0.941712 12:-0.957065 13:-0.963239 14:-0.700658 15:0.124772 16:-0.217018 17:-0.280055 18:-0.127869 19:-0.955443 20:-0.953405 21:-0.815009 22:-0.866424 23:-0.796615 24:-0.768505 25:-0.686596 26:-0.0783242 27:-0.438783 28:-0.698957 29:-0.795785 30:-0.943878 31:-0.43898 32:-0.409836 33:-0.597045 34:-0.691803 35:-0.0891207 36:0.232787 37:-0.959334 38:-1 39:-0.696721 40:-0.832344 41:-0.903932 42:-0.766934 43:-0.814851 44:-0.94929 45:-0.759563 46:-0.0588235 47:-0.121161 48:-0.132394 49:-0.114754 50:-0.290888 51:-0.689021 52:-0.727129 53:-0.777354 54:-0.202186 55:-0.829508 56:-0.884075 57:-0.885666 58:-0.843872 59:-0.87084 60:-0.908513 61:-0.980798 62:-1 63:-0.815038 64:-0.851709 65:-0.423077 66:0.290528 67:-0.140815 68:-0.690445 69:-0.901093 70:-0.502544 71:-0.309157 72:-0.489215 73:-0.124122 74:-0.228544 75:1 76:-0.810255 77:-0.904093 78:-1 79:-1 80:-0.995816 81:-0.977322 82:-1 83:-1 84:-0.900729 85:-0.91184 86:-0.849727 87:-0.931928 88:-0.927869 89:-0.688104 90:-0.768063 91:-0.594478 92:-0.47964 93:-0.516393 94:-0.576161 95:-0.741981 96:-0.837994 97:0.110002 98:-0.271403 99:0.322404 100:-0.873494 101:-0.954862 102:-0.971767 103:-0.973238 104:-0.891032 105:-0.598361 106:-0.706479 107:-0.776298 108:-0.533417 109:0.0103218 110:-0.667577 111:-0.701592 112:0.813895 113:1 114:-0.57377 115:-0.790587 116:-0.687744 117:-0.872636 118:-0.737705 119:-1 120:-0.908946 121:-0.887932 122:-0.879781 123:-0.844423 124:-0.854426 125:-0.925164 126:-0.958213 127:-0.96357 128:-0.949308 129:-1 130:-0.685246 131:-0.930419 132:-0.837721 133:-0.85509 134:-0.564891 135:-0.428209 136:-0.239344 137:-0.540984 138:-0.414263 139:-0.165559 140:-0.255481 141:-0.927332 142:-0.857143 143:-0.290611 144:-0.38966 145:-0.0241495 146:-0.329103 147:-0.48751 148:-0.464481 149:-0.318033 150:-0.787025 151:-0.727419 152:-0.698315 153:-0.742389 154:-0.950654 155:-0.96612 156:-1 157:-0.706179 158:0.0976479 159:-0.749331 160:-0.904864 161:-0.852448 162:-0.981391 163:-0.827869 164:-0.701795 165:-0.480874 166:-0.200326 167:-0.318033 168:-0.110254 169:-0.37625 170:-0.86612 171:-0.468124 172:-0.468124 173:-0.83495 174:-0.726776 175:-0.576831 176:-0.8898 177:-0.907524 178:-0.792604 179:0.684346 180:-0.860223 181:0.844181 182:-0.511612 183:-0.78785 184:-0.970249 185:-0.801457 186:0.776321 187:0.219672 188:-0.413934 189:-0.623084 190:-0.805328 191:-0.559719 192:-0.720219 193:-0.637978 194:-0.696721 195:-0.695652 196:-0.569672 197:-0.756687 198:-0.83464 199:-0.919854 200:-0.883034 
-1.1195907006386663 0.88396495291191002 0.8642927968428743 1.3101875170642006 1.140576078634951 1:-0.96215 2:-0.929026 3:-1 4:-1 5:-1 6:-0.929187 7:0.75414 8:0.42791 9:-0.573484 10:-0.23417 11:-0.864119 12:-0.599636 13:-0.61436 14:-0.825542 15:-0.798301 16:-0.89263 17:0.579618 18:-0.322293 19:-0.896129 20:-0.901784 21:-0.714435 22:-0.844303 23:-0.762933 24:-0.460336 25:-0.196328 26:-0.0658174 27:-0.215011 28:-0.454159 29:-0.642948 30:-1 31:-0.821656 32:-1 33:-0.957301 34:-0.568917 35:-0.867284 36:-1 37:-0.905199 38:-0.847134 39:-0.823248 40:0.263476 41:0.314792 42:-0.805955 43:-0.76021 44:-0.408917 45:-0.43949 46:-0.40577 47:-0.48781 48:-0.919097 49:-0.656051 50:-0.614279 51:-0.855009 52:-1 53:-0.913494 54:-1 55:-0.933758 56:-0.819836 57:-0.800098 58:-0.545041 59:-0.84945 60:-0.889181 61:-0.757583 62:0.703367 63:-0.815206 64:-1 65:-0.731014 66:-0.942144 67:-0.809244 68:-0.909795 69:-0.884713 70:-0.855041 71:-0.654893 72:-0.55347 73:-0.579618 74:-0.250656 75:-0.481953 76:-0.336495 77:-0.44105 78:-0.758401 79:-0.530878 80:-0.821594 81:-0.891327 82:-0.921555 83:-0.66242 84:-0.884289 85:0.181741 86:-0.562102 87:-0.682621 88:-0.705732 89:-0.740323 90:-0.768274 91:-0.527321 92:-0.595644 93:-0.549045 94:-0.622213 95:0.603988 96:-0.527913 97:-0.946091 98:-0.957537 99:-0.859873 100:-0.986055 101:-0.995027 102:-0.967091 103:-1 104:-1 105:-1 106:-1 107:-1 108:-1 109:-0.852795 110:-0.845011 111:1 112:1 113:-0.652798 114:-0.627389 115:-0.552496 116:-0.563239 117:-0.653601 118:-0.235669 119:-0.710722 120:-0.177221 121:-0.98446 122:-1 123:-0.954665 124:-0.717197 125:-0.651085 126:-0.659048 127:-0.10828 128:-0.468221 129:-0.478146 130:-0.633121 131:-0.878344 132:-0.697356 133:-0.577731 134:-0.882962 135:-0.859688 136:-0.950743 137:-0.770701 138:-0.929372 139:0.322775 140:-0.972024 141:-0.73824 142:-0.625341 143:-0.513607 144:0.067124 145:-0.857818 146:-0.857818 147:-0.724295 148:-0.509554 149:0.490446 150:-0.379389 151:-0.761709 152:-0.578025 153:-0.733091 154:-0.827446 155:-0.96051 156:-0.91617 157:-0.94292 158:-0.939075 159:-0.91652 160:-0.937253 161:0.382743 162:-0.718024 163:-0.464968 164:-0.536548 165:0.675649 166:-0.313186 167:-0.635669 168:-0.870363 169:-0.776293 170:-0.947983 171:-0.955717 172:-0.94364 173:-0.951904 174:-0.745223 175:-0.876688 176:-0.914367 177:-0.89221 178:-0.939565 179:-0.803672 180:-0.908513 181:-0.61515 182:-0.91242 183:-0.917572 184:-0.895966 185:-0.907431 186:-0.909979 187:-0.947346 188:-0.947452 189:-0.560665 190:-0.621815 191:-0.572338 192:-0.103185 193:0.856688 194:0.555414 195:-0.239823 196:0.805732 197:-0.590345 198:-0.967876 199:-0.953291 200:-0.980104 
-1.2671898022391757 1.0753158733345913 2 1.2070801701193397 1.8184534586394385 1:-0.76242 2:-0.93559 3:-0.919075 4:-0.901483 5:-0.82236 6:-0.742945 7:-0.528324 8:-0.56805 9:0.257975 10:-0.255355 11:-0.630058 12:-0.818332 13:-0.961114 14:-0.802097 15:-0.771195 16:-0.464079 17:-0.776012 18:0.230058 19:-0.599378 20:-0.876456 21:-0.918685 22:-0.915222 23:-0.815593 24:-0.608198 25:-0.602176 26:-0.618497 27:-0.16888 28:-0.929235 29:-0.67597 30:-0.109514 31:-0.568401 32:-0.687861 33:-0.263755 34:-0.15237 35:0.0438255 36:-0.580842 37:-0.526818 38:-0.907514 39:-0.919798 40:-0.963564 41:-0.770503 42:-0.788681 43:-0.956477 44:-0.919538 45:0.271676 46:-0.66814 47:-0.53518 48:-0.596187 49:-0.375723 50:-0.499933 51:-0.21051 52:0.0583629 53:-0.764484 54:-0.915607 55:-1 56:-0.959125 57:-1 58:-0.174236 59:-0.111929 60:-0.448982 61:-0.978125 62:-0.93559 63:-0.860247 64:1 65:-0.552468 66:-0.632466 67:-0.697051 68:-0.672551 69:-0.755877 70:-0.210684 71:-0.582414 72:-0.392151 73:-0.672998 74:-0.591976 75:-0.764933 76:-0.899643 77:-0.949275 78:-0.868447 79:-0.690374 80:-0.688358 81:-0.905254 82:-0.92881 83:-0.693642 84:-0.89499 85:-0.720231 86:-0.602601 87:-0.855987 88:-0.618497 89:-0.340151 90:-0.299018 91:-0.399452 92:0.100876 93:-0.283815 94:-0.393425 95:-0.454134 96:-0.82863 97:-0.951076 98:-0.961464 99:-0.872832 100:-0.958167 101:-0.696294 102:-0.820809 103:-0.716911 104:-0.423665 105:-0.858382 106:-0.767135 107:-0.668714 108:-0.561286 109:-0.465639 110:0.441715 111:0.183715 112:-0.48142 113:-0.68491 114:-0.849711 115:-0.778482 116:-1 117:-1 118:-1 119:-1 120:-0.966459 121:-0.952107 122:-0.936416 123:-1 124:-0.948671 125:-0.841677 126:-0.867392 127:-0.961464 128:-0.785512 129:-0.605342 130:0.66474 131:-0.558382 132:-0.691014 133:-0.386855 134:-0.362717 135:-0.33149 136:-0.105973 137:-0.953757 138:-0.935904 139:-0.929386 140:-0.886563 141:-0.738739 142:-0.357762 143:-0.47031 144:-0.67719 145:0.16129 146:-0.419355 147:-0.749794 148:-0.878613 149:-0.909827 150:-0.887357 151:0.225434 152:-0.106455 153:-0.69722 154:-0.68681 155:-0.749133 156:-0.923923 157:-1 158:-0.502388 159:-0.583323 160:-0.921429 161:-0.630691 162:-0.704734 163:-0.817919 164:-0.859804 165:-0.450867 166:0.424671 167:-0.158382 168:1 169:-0.492457 170:-0.716763 171:-0.919626 172:-0.948853 173:-0.869057 174:-0.884393 175:-0.944046 176:-0.922286 177:-0.951089 178:-0.945154 179:-0.910915 180:-0.952884 181:-0.73067 182:-0.801301 183:-0.401564 184:-0.433526 185:-0.831985 186:-0.428131 187:-0.569942 188:-0.618497 189:-0.487382 190:-0.176301 191:0.785301 192:-0.186127 193:-0.770231 194:-0.935838 195:-0.632068 196:-0.681358 197:-0.714025 198:-0.679316 199:-0.830443 200:-0.947569 
-0.98451486584290504 0.82646583893391079 0.62628342408361592 1.0842244181746676 0.78135221275709266 1:-0.308122 2:0.137026 3:0.714286 4:1 5:-0.749129 6:-0.962185 7:-1 8:-0.872913 9:-0.829176 10:-1 11:-0.945578 12:-0.919825 13:-0.931354 14:-1 15:-0.596088 16:-0.827988 17:-0.762755 18:-0.612245 19:-0.750392 20:-0.120777 21:-0.726868 22:-0.950113 23:-0.837232 24:-0.567718 25:-0.414766 26:-0.85034 27:-0.685604 28:0.998763 29:-0.491545 30:-0.161611 31:-0.904762 32:-0.908163 33:-0.931595 34:-1 35:-0.929128 36:-0.835569 37:-0.924063 38:-0.918367 39:-0.858418 40:-0.167571 41:-0.800196 42:-0.813479 43:-0.884754 44:-0.38449 45:0.346939 46:-0.414166 47:-0.776214 48:-0.675976 49:-0.908163 50:-0.911723 51:-0.767718 52:-0.830151 53:-0.861414 54:-0.85102 55:-0.787755 56:-0.855685 57:-0.466248 58:0.166181 59:-0.155844 60:-0.589269 61:-0.940698 62:-0.943149 63:-0.407905 64:-0.584634 65:-0.640895 66:-0.0731293 67:0.145997 68:-1 69:-1 70:-0.92259 71:-0.815708 72:-1 73:-1 74:-0.759904 75:-0.585034 76:-0.82284 77:-0.641816 78:0.00633357 79:-0.385093 80:-0.290672 81:-0.921292 82:-1 83:-0.729592 84:-0.876417 85:-0.835374 86:-1 87:-0.936443 88:-0.932653 89:-1 90:-0.938128 91:-1 92:-0.352205 93:0.806122 94:-0.115434 95:-1 96:-0.92437 97:-0.913635 98:-0.455782 99:-0.326531 100:0.240524 101:-0.938776 102:-1 103:-0.950026 104:-1 105:-0.875 106:-0.588921 107:-0.916454 108:-0.903192 109:-1 110:-0.87585 111:-0.721384 112:-0.176093 113:-0.125923 114:0.193878 115:-0.543779 116:0.982507 117:-0.286499 118:-0.265306 119:-0.721939 120:-0.803057 121:-0.896967 122:-0.943878 123:-1 124:-1 125:-0.930128 126:-0.921969 127:-0.931973 128:-0.95267 129:-0.930331 130:-1 131:-0.935034 132:1 133:-0.526455 134:-0.8125 135:-0.662822 136:-0.605442 137:-0.836735 138:-0.924567 139:0.184225 140:-0.306298 141:-0.980006 142:-0.799927 143:-0.454545 144:-0.857535 145:-0.772219 146:0.59447 147:-0.116618 148:1 149:-0.522449 150:-0.801151 151:-0.363745 152:-1 153:-0.73275 154:-0.815708 155:-0.873469 156:-0.932851 157:-0.908556 158:-1 159:-0.933131 160:-0.932127 161:-0.64512 162:-0.930502 163:-0.892857 164:-0.814383 165:-0.850863 166:-0.921407 167:-0.469388 168:-0.169268 169:0.254355 170:1 171:-0.503401 172:-0.819419 173:-0.768846 174:-0.795918 175:-0.604898 176:-0.862812 177:-1 178:-0.70954 179:-0.685474 180:-0.960859 181:-0.631498 182:-0.789541 183:-0.933974 184:1 185:0.260544 186:-0.711565 187:-0.915646 188:-1 189:-0.899452 190:-0.878827 191:-1 192:-0.869388 193:-0.864796 194:-1 195:-0.918811 196:-0.919643 197:-0.899033 198:-0.74268 199:-0.77551 200:0.131105 
-1.1597322806940387 0.79670069090604956 0.83375748870095479 1.2901837874816473 1.2605344015142517 1:-0.674036 2:-0.74482 3:-0.89313 4:-0.804846 5:-0.718488 6:-0.943422 7:-0.143511 8:0.521166 9:-0.488832 10:-0.34441 11:-0.633588 12:-0.34024 13:-0.589174 14:-0.790917 15:-0.637405 16:-0.549618 17:-0.526718 18:-0.767939 19:-0.906635 20:-0.733317 21:-0.650795 22:-0.589483 23:-0.959412 24:-0.870645 25:0.926358 26:-0.552163 27:-0.921601 28:-0.953273 29:-0.952454 30:-0.921601 31:-1 32:-0.862595 33:-0.948827 34:-0.311145 35:-0.681888 36:-0.569466 37:-0.375111 38:-0.877863 39:-0.894084 40:0.405704 41:-0.722794 42:1 43:-0.798833 44:-0.787481 45:-0.496183 46:-0.50696 47:-0.274546 48:-0.5152 49:-0.656489 50:-0.537724 51:-1 52:-0.745875 53:-0.948163 54:-0.88855 55:-0.920611 56:-1 57:-1 58:-0.890949 59:-0.909785 60:-0.807815 61:-0.833275 62:-0.95747 63:-0.926176 64:-0.585691 65:-0.57017 66:-0.583969 67:-0.256997 68:1 69:-0.631552 70:-0.65254 71:-0.793199 72:-0.554038 73:-0.496183 74:-0.820386 75:-0.689567 76:-0.933734 77:-1 78:-0.88418 79:-0.744441 80:-0.527804 81:-0.41023 82:-0.623945 83:-0.291985 84:-0.815098 85:0.169975 86:-0.527672 87:-1 88:-0.949618 89:-0.937757 90:-1 91:-1 92:-0.939424 93:-1 94:-0.965172 95:0.922337 96:-0.773687 97:-0.580042 98:-0.236641 99:-0.832061 100:-0.610189 101:-0.806441 102:0.419847 103:-0.439225 104:-0.746295 105:-0.34542 106:-0.384951 107:-0.75 108:-0.927579 109:-1 110:-0.953562 111:-0.895785 112:-0.657579 113:-0.762222 114:-0.801527 115:-0.756218 116:-0.214831 117:-0.940693 118:-0.175573 119:-0.722646 120:-0.604668 121:-0.738709 122:-0.790076 123:-0.348002 124:-0.45771 125:-0.634105 126:-0.766502 127:-0.694656 128:-0.929186 129:-0.947881 130:-0.937186 131:-1 132:-0.954661 133:-1 134:-0.251908 135:-0.369399 136:-0.645802 137:-0.969466 138:-0.689632 139:-0.766866 140:0.345941 141:-0.888116 142:-0.900218 143:-1 144:-1 145:-0.914799 146:-0.829599 147:-0.614504 148:-0.732824 149:-0.285496 150:0.413192 151:0.332735 152:-0.409987 153:-0.400218 154:-0.103863 155:-0.479389 156:-0.547895 157:-0.726365 158:-1 159:-0.949976 160:-0.892199 161:-0.412656 162:-0.662059 163:-0.759542 164:-0.907428 165:-0.832648 166:0.705051 167:-0.920611 168:-0.844634 169:-0.865947 170:-0.937659 171:-0.310069 172:-0.52718 173:-0.59651 174:-0.389313 175:-0.778321 176:-0.640797 177:-0.741632 178:-0.637848 179:-0.764706 180:-0.841341 181:0.175961 182:-0.737595 183:-0.901212 184:-0.958439 185:-0.611705 186:-0.0290076 187:-0.179644 188:-0.811069 189:-0.849562 190:-0.909351 191:-0.897492 192:-1 193:-0.898855 194:-0.915267 195:-0.939263 196:-0.519084 197:-0.697871 198:-0.114504 199:-0.552163 200:0.128176 
-1.1939180265812137 0.98947120207619144 1.3818426641224348 1.022901769823823 1.013979906859501 1:-0.120951 2:-0.619048 3:-0.521368 4:-0.125975 5:-0.106942 6:-0.683258 7:-0.128205 8:-0.574204 9:-0.856917 10:-0.339367 11:-0.908832 12:-0.73138 13:-0.770008 14:-0.941475 15:-0.932336 16:-1 17:-0.933761 18:-0.935043 19:-1 20:0.110403 21:-0.690866 22:-0.749288 23:-0.772775 24:-0.855167 25:-0.509804 26:-0.561254 27:-0.64888 28:-0.73841 29:-0.946764 30:-0.385539 31:-0.282051 32:0.0769231 33:-0.65622 34:-0.325128 35:-0.109557 36:-0.655678 37:-0.681972 38:-0.863248 39:-0.762821 40:-0.89434 41:-0.79905 42:-0.687537 43:-0.935646 44:-0.881026 45:-1 46:-0.938663 47:-0.937518 48:-1 49:-0.846154 50:-0.852117 51:-0.513598 52:-0.146402 53:-0.0133174 54:-0.251282 55:0.6 56:-0.274725 57:-0.731755 58:-0.389499 59:-0.292929 60:-0.538343 61:-0.737778 62:-0.952381 63:-0.834686 64:-0.884029 65:-0.819527 66:-0.767094 67:-0.808021 68:-0.576346 69:-1 70:-0.546124 71:-0.305361 72:-0.20108 73:-0.838828 74:-0.597788 75:0.042735 76:0.483906 77:-0.174952 78:-0.546124 79:-0.713861 80:-0.63681 81:-0.637762 82:-0.578947 83:-0.660256 84:-0.792972 85:-0.793162 86:-0.764957 87:-0.893529 88:-0.661538 89:-0.721236 90:-0.948175 91:-0.873144 92:-0.932175 93:-0.394872 94:-0.610043 95:-0.596433 96:-0.429864 97:-0.457451 98:-0.65812 99:-0.247863 100:-0.285628 101:-0.849315 102:-0.690883 103:-0.790708 104:-0.77275 105:-0.685897 106:-0.311355 107:0.819444 108:0.946088 109:-0.407407 110:-0.792023 111:-0.941657 112:-0.846642 113:-0.667212 114:-0.833333 115:-0.781638 116:-0.5116 117:-0.800789 118:-0.794872 119:-1 120:-0.935554 121:-0.917622 122:-1 123:-0.939165 124:-0.848205 125:-1 126:-0.673203 127:-0.7151 128:-0.841426 129:-0.766578 130:-0.578022 131:-0.891168 132:-0.847708 133:-0.830009 134:-0.528846 135:0.553326 136:0.0575499 137:-0.384615 138:-0.968409 139:-0.947794 140:-0.955062 141:-0.948864 142:-1 143:-0.934732 144:-0.960224 145:-1 146:-0.904604 147:-0.938339 148:-0.521368 149:-0.866667 150:-0.583607 151:-0.14731 152:0.887464 153:-0.015059 154:0.312095 155:-0.25812 156:-0.831266 157:-0.540434 158:-1 159:-0.88798 160:-0.911494 161:-0.862731 162:-0.941788 163:-0.820513 164:-0.948175 165:-0.937541 166:-0.80251 167:-0.866667 168:-0.304173 169:0.0506567 170:-0.371795 171:-0.346357 172:0.739446 173:-0.0319205 174:-0.65812 175:-0.420855 176:-0.942545 177:-0.927679 178:-0.918903 179:-0.736551 180:-0.769615 181:-0.584158 182:0.0576923 183:-0.723479 184:-0.860399 185:-0.875783 186:-0.758405 187:-0.364103 188:-1 189:-0.747342 190:-0.492521 191:-0.885226 192:-0.671795 193:-0.547009 194:-0.430769 195:-0.183946 196:-0.394231 197:-0.577148 198:-0.655147 199:-0.623932 200:-0.698626 
-0.91770156358587329 0.42544884579741798 0.60515005797987942 0.91245133110940779 0.75447759190679198 1:-0.511116 2:-0.0765588 3:0.624309 4:-0.387941 5:-0.660423 6:-0.856679 7:-0.943646 8:-0.93119 9:-0.90751 10:-0.762756 11:-0.970534 12:-0.95659 13:-0.962833 14:-0.962169 15:-0.956262 16:-0.953433 17:-0.700276 18:-0.160221 19:-0.864853 20:1 21:-0.812577 22:-0.891958 23:-0.970624 24:-0.859568 25:-0.936627 26:-1 27:-1 28:-0.966181 29:-0.896764 30:-0.943258 31:-0.793738 32:-0.0552486 33:1 34:0.682652 35:-0.232546 36:-0.465825 37:-0.671078 38:-0.779006 39:-0.69337 40:-0.88459 41:-0.975165 42:-1 43:-0.958401 44:-0.897459 45:-0.918969 46:0.110172 47:0.857878 48:1 49:-0.20442 50:-0.808814 51:-0.874234 52:-0.908038 53:-1 54:-0.919337 55:-0.942541 56:-0.960931 57:-1 58:-0.684294 59:-0.738825 60:-0.867881 61:-0.840055 62:-0.78453 63:-0.812994 64:-0.737623 65:-0.88334 66:-0.698895 67:-0.875903 68:0.877856 69:1 70:-0.119832 71:-1 72:-1 73:-1 74:-0.935002 75:-1 76:-1 77:-0.85455 78:-0.874262 79:-0.926015 80:-0.84948 81:-0.976608 82:-0.931957 83:-0.707182 84:-0.866176 85:-1 86:-0.924033 87:-0.862352 88:-0.890608 89:-0.819805 90:-0.866 91:-0.630997 92:-0.693103 93:-0.755525 94:-0.949586 95:1 96:-0.385765 97:-0.719433 98:-0.00552486 99:0.154696 100:-0.693792 101:-0.954136 102:-0.94291 103:-0.891769 104:-0.926552 105:-1 106:-0.554854 107:-0.00483425 108:-0.737923 109:-0.616943 110:-0.663904 111:-0.509729 112:-0.0582478 113:-0.569766 114:-0.533149 115:-0.576546 116:-0.116022 117:-0.871228 118:-0.668508 119:-0.297422 120:0.0181487 121:-0.886426 122:-0.969613 123:-0.921352 124:-0.901878 125:-0.962169 126:-0.915502 127:-0.926335 128:-0.846244 129:-0.773671 130:-0.909077 131:-0.894475 132:-0.901557 133:-0.706978 134:-0.424724 135:0.0953639 136:0.153591 137:-0.58011 138:-0.509896 139:-0.696282 140:-0.76343 141:-0.901269 142:-0.891673 143:-1 144:-0.974288 145:-0.938335 146:-0.876671 147:-0.960142 148:-0.767956 149:0.249724 150:-0.73084 151:-0.724407 152:0.281077 153:-0.0160484 154:0.446844 155:-0.349171 156:-0.600071 157:-0.950489 158:-0.84146 159:-0.927589 160:-0.947243 161:-0.951964 162:-0.943557 163:-1 164:-0.799 165:-0.515512 166:1 167:-0.253039 168:-0.21287 169:-0.708934 170:-0.278085 171:-0.769534 172:-0.511133 173:-0.49938 174:-0.944751 175:-0.786077 176:-0.814303 177:-0.906502 178:-0.842734 179:-0.744556 180:-0.955887 181:-0.890487 182:-0.962017 183:-0.928502 184:-0.96992 185:-0.919705 186:-0.843831 187:-0.908656 188:-0.95442 189:-0.89112 190:-0.737569 191:-0.851618 192:-0.717127 193:-0.853591 194:-0.754696 195:-0.956041 196:0.566298 197:0.339343 198:-0.331252 199:0.296501 200:-0.777643 
-1.0678122123992682 0.95154149906722096 0.75069694629674733 0.99407114052059031 0.83653464187560145 1:-0.709941 2:-0.795544 3:-0.743119 4:-1 5:-0.0413963 6:-0.0480302 7:-0.812844 8:-0.542952 9:-0.769623 10:-0.921209 11:-0.95107 12:-1 13:-0.876564 14:-0.811538 15:-0.85474 16:-1 17:-0.928899 18:-0.511927 19:-0.775582 20:0.367246 21:-0.757972 22:-0.461774 23:1 24:-0.45588 25:-0.894765 26:-0.932722 27:-0.905777 28:-0.943842 29:-1 30:-0.905777 31:-0.914373 32:-1 33:-0.938498 34:-0.793028 35:-0.93628 36:-0.852163 37:-0.590356 38:-0.486239 39:-0.618119 40:-0.388947 41:-0.862895 42:-0.832302 43:-0.861846 44:-0.787156 45:-0.663609 46:-0.802482 47:-0.664663 48:-0.359086 49:-0.834862 50:-0.682526 51:-0.89558 52:0.374371 53:-0.9377 54:-0.933028 55:-0.809174 56:-0.935125 57:-0.808045 58:-1 59:0.517932 60:1 61:-0.638928 62:-0.948886 63:-0.955638 64:-1 65:-0.741708 66:-0.75 67:-0.450482 68:-0.545252 69:-0.557187 70:0.600759 71:-0.254379 72:-0.0352487 73:-0.307995 74:-0.244468 75:-0.378186 76:-0.840718 77:-0.838981 78:-0.930402 79:-0.938572 80:-0.789565 81:-0.716554 82:-0.774022 83:-0.756881 84:-0.944444 85:-0.925994 86:-0.747706 87:1 88:-0.757798 89:-0.700776 90:-0.777487 91:-1 92:-0.927197 93:-0.918807 94:-1 95:-0.422417 96:-0.320022 97:-0.689403 98:-0.69419 99:0.311927 100:-0.921702 101:-0.983788 102:-0.857798 103:-0.550694 104:-0.634107 105:0.0114679 106:-0.876802 107:0.27695 108:-0.825923 109:-0.363914 110:0.674312 111:-0.624252 112:-0.835387 113:-0.857115 114:-0.940367 115:-0.882806 116:-0.790301 117:-0.714891 118:-1 119:-0.833333 120:-0.826063 121:-0.909803 122:-1 123:-0.9347 124:-1 125:-1 126:-0.859687 127:-1 128:1 129:-0.749446 130:-0.849017 131:-0.88318 132:-1 133:-0.878355 134:-0.943807 135:-1 136:-0.929052 137:-0.889908 138:-0.457438 139:-0.327548 140:-0.092644 141:-0.943194 142:-1 143:-1 144:-0.957304 145:-0.897603 146:-0.590411 147:-0.801442 148:-0.743119 149:-0.713761 150:-0.553046 151:-0.542364 152:-0.493502 153:-0.75972 154:-0.585766 155:-0.715596 156:0.690441 157:0.726535 158:-0.824491 159:-0.699395 160:-0.867899 161:-0.907327 162:-0.968758 163:-0.807339 164:-0.944372 165:-1 166:-0.858677 167:-0.952294 168:-0.533189 169:-0.597225 170:-0.100917 171:0.275666 172:0.380039 173:0.801161 174:-0.816514 175:-0.822385 176:-1 177:-0.844742 178:-0.912951 179:-0.575823 180:-0.80511 181:-0.42948 182:-0.936927 183:-0.762547 184:-0.150866 185:1 186:-0.870336 187:-0.696636 188:-0.62156 189:-1 190:-0.891055 191:-0.876802 192:-1 193:-1 194:-0.592661 195:-0.343039 196:-0.349771 197:-0.727668 198:-0.861189 199:-0.730887 200:-0.790032 
-0.88821123017564485 0.41400757702049457 0.84856694297624846 0.76486820116309273 0.82503532651608347 1:-0.192501 2:-0.446809 3:0.687943 4:-0.818686 5:-0.738454 6:-0.789737 7:-0.276596 8:-0.91167 9:-1 10:-0.878181 11:-0.8487 12:-0.888551 13:-0.856867 14:-0.805746 15:-0.775414 16:-0.701114 17:-0.835106 18:-0.838298 19:-0.681942 20:0.633756 21:-0.892268 22:-0.965327 23:-1 24:-0.879819 25:-0.837297 26:-0.895981 27:-0.781484 28:-0.956587 29:-0.867477 30:-0.635806 31:-0.735225 32:-0.170213 33:-0.381928 34:1 35:0.182205 36:1 37:-0.894442 38:-0.886525 39:-1 40:-0.985532 41:-0.619941 42:-0.913574 43:-0.9466 44:-0.802553 45:-0.791962 46:-0.440134 47:-0.896307 48:-0.864875 49:-0.489362 50:-0.754577 51:-0.273501 52:-0.763898 53:0.396668 54:-0.378723 55:0.91773 56:-0.899696 57:-0.925805 58:-0.797366 59:-0.916183 60:-0.974748 61:-0.847017 62:-0.920973 63:-0.897118 64:-0.903769 65:-0.700491 66:-0.549054 67:-0.840698 68:-0.748898 69:-0.871631 70:0.237466 71:0.216849 72:0.160134 73:-0.264438 74:-0.0821861 75:-0.134752 76:-0.815301 77:-0.813287 78:-0.62338 79:-0.905026 80:-0.844563 81:-0.538872 82:-0.737962 83:-0.906028 84:-0.914106 85:-0.713948 86:-0.219858 87:-0.204863 88:-0.531915 89:-0.884343 90:-0.956997 91:-0.842105 92:-0.83116 93:-0.623404 94:-0.805851 95:-0.944187 96:0.156446 97:-0.249666 98:-0.905437 99:-0.453901 100:-0.982172 101:-0.850044 102:-0.63357 103:-0.652664 104:-0.292866 105:-0.565603 106:-0.809524 107:-0.76773 108:-0.86543 109:-0.918046 110:-0.784279 111:-1 112:-0.936373 113:-0.558171 114:-0.400709 115:-0.728209 116:-0.108409 117:-0.448991 118:-0.659574 119:-0.549054 120:0.553462 121:-0.979956 122:-1 123:-0.798081 124:-0.811064 125:-0.902873 126:-0.891531 127:-0.858156 128:-0.638147 129:-0.564197 130:-0.474772 131:-0.187234 132:-0.789383 133:-0.952981 134:-0.609043 135:0.0545791 136:-0.341844 137:-0.631206 138:-0.895143 139:-0.91336 140:-0.745422 141:-0.994071 142:-1 143:-1 144:-0.966994 145:-0.525051 146:-0.287577 147:-0.89767 148:-0.950355 149:-0.723404 150:-0.308965 151:-0.115561 152:-0.0602837 153:-0.591354 154:0.280894 155:-0.0326241 156:-0.62663 157:-0.427987 158:-0.728646 159:-0.721141 160:-0.928703 161:-0.759304 162:-0.927545 163:-0.851064 164:-0.913993 165:-0.844517 166:-0.836125 167:-0.668085 168:-0.639132 169:-0.252724 170:-0.189125 171:-0.506923 172:-0.435203 173:-0.571573 174:-0.858156 175:0.0984397 176:0.239559 177:-0.879978 178:-0.79812 179:-0.67209 180:-0.937459 181:-0.848987 182:-1 183:-1 184:-0.961387 185:-0.948463 186:-0.899764 187:-0.824113 188:-0.882979 189:-0.790348 190:-0.91578 191:-0.809524 192:-0.182979 193:0.409574 194:-0.52766 195:-0.604995 196:-0.553191 197:1 198:-0.499229 199:-0.791962 200:-0.842229 
-1.4298569889810442 0.5368205390615941 1.2020995190274184 0.94748894413626861 1.1274408195363157 1:-0.949775 2:-0.834921 3:-0.377778 4:-0.36876 5:-0.226016 6:-0.807843 7:-0.697778 8:-0.261953 9:-0.813992 10:-1 11:-0.723457 12:-0.650794 13:-0.750842 14:-0.239171 15:-0.824074 16:-0.937566 17:-0.827778 18:-0.774815 19:-0.909402 20:0.333364 21:-0.736761 22:-0.855144 23:-0.921229 24:-0.937239 25:-0.745098 26:-0.728395 27:-0.923924 28:-0.863973 29:-0.769312 30:-0.163163 31:0.106173 32:-0.133333 33:-0.553086 34:-0.832889 35:-0.845657 36:-0.76127 37:-0.448751 38:0.6 39:-0.691667 40:-0.838314 41:-0.375025 42:0.128338 43:-0.637473 44:-0.656296 45:-0.619753 46:-0.627887 47:-0.837548 48:-0.952956 49:-0.933333 50:-1 51:-1 52:-0.876703 53:-0.748493 54:-0.351111 55:-0.22963 56:-0.371429 57:-0.690028 58:-1 59:-0.912458 60:-0.919755 61:-0.776345 62:-0.95873 63:-1 64:-0.698475 65:-0.165812 66:0.143827 67:-0.168091 68:-0.108308 69:-0.865926 70:-0.606641 71:-0.39798 72:-0.567251 73:-0.650794 74:-0.651416 75:-0.297119 76:-0.678487 77:-0.934996 78:-0.662835 79:-0.900805 80:-0.836237 81:-0.779217 82:-1 83:-0.803704 84:-1 85:-0.880494 86:-0.796296 87:-0.723175 88:-0.902222 89:-0.818803 90:-0.820341 91:-0.670175 92:-0.529749 93:-0.606667 94:-0.662037 95:-0.417069 96:-0.505882 97:-0.529791 98:-0.506173 99:0.303704 100:-0.303994 101:-0.39726 102:-0.540741 103:-0.419563 104:-0.704575 105:-0.909259 106:-0.602116 107:-0.696759 108:-0.718898 109:-0.914403 110:-0.639506 111:-0.646055 112:-0.933545 113:-0.653901 114:-0.566667 115:-0.668817 116:-0.0687831 117:-0.539601 118:-0.733333 119:-0.865432 120:-0.865538 121:-0.839496 122:-0.918519 123:-0.84183 124:-0.473778 125:-0.74639 126:-0.660131 127:-0.407407 128:-0.793853 129:-0.595402 130:-0.573333 131:-0.811358 132:-0.824018 133:-0.607133 134:-0.818519 135:-0.755233 136:-0.885432 137:-0.940741 138:-0.780966 139:-0.773774 140:0.709307 141:-0.959166 142:-0.854762 143:-0.773737 144:-0.931054 145:-0.669295 146:-0.751971 147:-0.465608 148:0.244444 149:-0.191111 150:0.587844 151:-0.445752 152:-0.345679 153:-0.844797 154:-0.665544 155:-0.862222 156:-0.805018 157:-0.734473 158:-0.645733 159:-0.757289 160:-0.954182 161:-0.883638 162:-0.974775 163:-0.611111 164:-0.865256 165:-0.945869 166:-0.885894 167:-0.268148 168:0.733769 169:0.365854 170:0.209877 171:-0.536508 172:-0.672278 173:-0.552532 174:-0.703704 175:-1 176:-0.900412 177:-0.937322 178:-0.859432 179:-0.885839 180:-0.846659 181:-0.644507 182:-0.796296 183:-0.808279 184:-0.838683 185:-0.892346 186:-0.685926 187:-0.755062 188:-0.877778 189:-0.56206 190:-0.912037 191:-0.801058 192:0.137778 193:0.864815 194:0.397778 195:-0.58744 196:0.4 197:-0.633528 198:-0.925282 199:-0.891358 200:-0.787903 
-1.177252758367535 0.7830334540183328 1.1097865790913033 1.1304525685939775 1.1097771414852566 1:-0.203493 2:-0.554286 3:-0.44 4:-0.573913 5:-0.200976 6:-0.925882 7:-0.388 8:0.494545 9:-0.832593 10:-0.742353 11:-1 12:-1 13:-0.865455 14:-0.794576 15:-0.604167 16:-0.662857 17:-0.7675 18:-0.924 19:-0.347692 20:-0.580595 21:-0.531666 22:-0.951111 23:-0.840488 24:-0.915273 25:-0.770588 26:-0.853333 27:-0.794595 28:-0.816364 29:-0.377143 30:0.643243 31:-0.44 32:-0.46 33:-0.731852 34:-0.0976 35:-0.861091 36:-0.919429 37:-0.925581 38:-0.92 39:-0.930625 40:0.159514 41:-0.760888 42:-0.756279 43:-0.774118 44:-0.8144 45:0.466667 46:-0.784706 47:-0.78069 48:-0.618947 49:-0.64 50:-0.48093 51:-0.203273 52:-0.334194 53:-0.32093 54:-0.781 55:-0.896 56:-0.858571 57:-0.895385 58:-0.714286 59:-0.645455 60:-0.74041 61:-0.942424 62:-1 63:-0.951646 64:-1 65:-0.718462 66:-0.818333 67:-0.326154 68:-0.433514 69:-0.577667 70:-0.0137931 71:-0.277576 72:-0.766316 73:0.508571 74:1 75:-0.322222 76:-0.913191 77:-0.736735 78:-0.924138 79:-1 80:-0.965865 81:-0.450838 82:-0.630526 83:-0.47 84:-0.878889 85:-0.919333 86:-0.8625 87:-0.813143 88:-0.736 89:-0.347692 90:-0.454286 91:-0.109474 92:-0.365161 93:-0.5575 94:-1 95:-0.921304 96:-0.925882 97:-0.957681 98:-0.933333 99:-0.78 100:0.430191 101:-0.900342 102:-0.948333 103:-0.706154 104:0.794706 105:0.225 106:-0.462857 107:-0.83625 108:-0.620513 109:-0.884444 110:-0.939167 111:-0.24913 112:-0.820571 113:-0.299149 114:-0.74 115:-0.872258 116:-0.657143 117:-0.922308 118:-0.64 119:-0.818333 120:-0.69591 121:-0.712543 122:-0.89 123:-0.928824 124:-0.8224 125:-0.794576 126:-0.0823529 127:-0.666667 128:-0.860851 129:-0.863448 130:-0.341714 131:-0.809 132:-0.762424 133:-0.734815 134:-0.755 135:-0.77971 136:-0.690667 137:-0.8 138:-0.778228 139:-0.816757 140:0.45832 141:-0.43855 142:-0.411786 143:0.756364 144:0.21 145:0.785806 146:-0.330323 147:-0.927857 148:-0.93 149:-1 150:-1 151:-1 152:-1 153:-1 154:-1 155:-0.938 156:-1 157:-1 158:-1 159:-0.934468 160:-0.933737 161:-0.836073 162:-0.965946 163:-0.58 164:-0.939365 165:-1 166:-0.922979 167:-0.064 168:0.221176 169:-0.473171 170:-0.183333 171:-0.513333 172:-0.734545 173:-1 174:-0.2 175:-0.3224 176:-0.731111 177:-0.407692 178:-0.810233 179:-0.537647 180:-0.90327 181:-0.771994 182:-0.93125 183:-1 184:-0.945556 185:-1 186:-1 187:-0.834667 188:-1 189:-0.507317 190:0.06875 191:0.745714 192:0.408 193:-0.47 194:-0.223 195:-0.761304 196:-0.8425 197:-0.802105 198:-0.848696 199:-0.633333 200:0.672135 
-1.2562653566195889 0.93027400051776621 0.89409659254028373 1.0053949968365112 1.0603036393872112 1:-0.561179 2:-0.405714 3:-0.346667 4:-0.715942 5:-0.877073 6:-0.975294 7:-0.66 8:-0.501818 9:0.953086 10:-0.656471 11:-0.893333 12:-0.738095 13:-0.506667 14:-0.589153 15:-0.630556 16:0.292381 17:-0.793333 18:-0.898667 19:-0.945641 20:-0.980305 21:-0.430983 22:-0.576296 23:0.24065 24:-0.435152 25:-0.770588 26:-0.951111 27:-0.931532 28:-1 29:-0.916952 30:-0.931532 31:-0.937778 32:-0.82 33:-0.821235 34:-0.624 35:0.0649697 36:0.450286 37:-0.652713 38:-0.893333 39:-0.95375 40:-0.987624 41:-0.965169 42:-1 43:-0.824314 44:-0.969067 45:-0.902222 46:-0.617255 47:0.218391 48:-0.068538 49:-0.76 50:-0.711628 51:-0.924121 52:-1 53:-0.954729 54:-0.951333 55:-0.930667 56:-0.764286 57:-0.232821 58:1 59:0.733333 60:-0.550515 61:-0.970626 62:-0.925714 63:-1 64:-0.819085 65:-0.953077 66:-0.818333 67:-0.700513 68:-0.622342 69:-0.436889 70:0.416092 71:-0.0969697 72:-0.143158 73:-0.0571429 74:0.411765 75:0.626667 76:-0.826383 77:-1 78:-1 79:-1 80:-0.943853 81:-0.884299 82:-1 83:-0.558333 84:-0.677037 85:-0.569778 86:-0.220833 87:-0.626286 88:-0.472 89:-1 90:-1 91:-1 92:-0.947097 93:-0.941 94:-0.847917 95:-0.737681 96:0.185882 97:-0.379324 98:0.0666667 99:-0.706667 100:-0.948644 101:-0.940411 102:-0.104444 103:-0.706154 104:-0.556863 105:-0.346667 106:-0.552381 107:-0.781667 108:-0.557265 109:-0.460741 110:-0.918889 111:-0.908986 112:-0.820571 113:-0.0655319 114:-0.176667 115:-0.744516 116:-0.542857 117:-0.89641 118:-0.6 119:-0.757778 120:-0.807616 121:-0.816414 122:-0.56 123:-0.52549 124:-0.112 125:-0.863051 126:-0.745098 127:-0.866667 128:-0.783546 129:-0.863448 130:-0.945143 131:-0.957556 132:-0.920808 133:-0.734815 134:-0.755 135:-0.77971 136:-0.175111 137:-0.44 138:-0.753586 139:-0.674234 140:-0.554282 141:-0.664541 142:-0.869286 143:-0.643636 144:-0.379487 145:0.0417204 146:-0.0326882 147:0.250476 148:-0.44 149:-0.428 150:-0.610256 151:-0.750588 152:-0.263889 153:-0.965079 154:-0.939798 155:-0.958667 156:-1 157:-0.880513 158:-0.808696 159:-0.912624 160:-0.960024 161:-0.937998 162:-0.841081 163:-0.72 164:-0.959577 165:-0.269231 166:-0.486525 167:-0.653333 168:-0.457255 169:-0.64878 170:-1 171:-0.953651 172:-1 173:-0.94966 174:-1 175:-0.870933 176:-0.507037 177:0.523077 178:0.707907 179:0.027451 180:-0.746502 181:-0.683734 182:-0.908333 183:-0.741176 184:0.342963 185:-0.0311111 186:-0.905778 187:-1 188:-0.945 189:-0.934309 190:-0.604167 191:-0.462857 192:-0.658667 193:-0.646667 194:-0.704 195:-0.84087 196:-0.7375 197:-0.802105 198:-0.529275 199:-0.168889 200:-0.643988 
-1.1806399720087937 1.3062851374946012 1.0962154926524286 1.3374326319707226 1.1879596257317422 1:-0.83601 2:-0.496368 3:-0.446328 4:-0.518546 5:-0.548574 6:-0.665005 7:-0.135593 8:-0.788906 9:-0.95271 10:-0.902958 11:-0.939736 12:-0.911219 13:-0.961993 14:-0.922628 15:-0.463277 16:1 17:-0.649718 18:-0.355932 19:-0.746632 20:-0.91541 21:0.785176 22:-0.917137 23:-0.90988 24:-0.377709 25:0.490528 26:-0.792844 27:-1 28:-1 29:-1 30:-0.825928 31:-0.894539 32:-0.847458 33:-1 34:-0.362712 35:-0.607601 36:-0.317191 37:-0.0329786 38:-0.322034 39:-0.490466 40:-0.937072 41:-0.850415 42:-0.690185 43:-0.914922 44:-0.895141 45:-0.66855 46:-0.716185 47:-0.504383 48:-0.318267 49:0.728814 50:-0.315727 51:0.221777 52:0.598688 53:-0.923269 54:-1 55:-0.647458 56:-0.880145 57:-0.822686 58:-0.757869 59:-0.933231 60:-0.864324 61:-0.88363 62:-0.716707 63:-0.317028 64:-0.195081 65:-0.880704 66:-0.794727 67:-0.0693901 68:-0.719957 69:-0.931827 70:-0.95714 71:-1 72:-1 73:-1 74:-0.734131 75:-0.00439422 76:-0.607645 77:-0.652946 78:-0.485681 79:-0.886514 80:0.161984 81:-0.975132 82:-0.930419 83:-1 84:-1 85:-1 86:-0.961158 87:-0.753672 88:0.19322 89:0.289874 90:-0.383374 91:-0.20339 92:-0.686167 93:1 94:-0.948446 95:-0.866618 96:-0.539382 97:-0.952182 98:-1 99:-0.875706 100:-0.95957 101:-0.952635 102:-0.883239 103:-0.916993 104:-0.81223 105:-0.861582 106:-0.772397 107:-0.814972 108:-0.732001 109:-0.608286 110:-0.690678 111:-0.807173 112:0.824697 113:-0.516048 114:-0.00847458 115:-0.278294 116:-0.160613 117:-0.517166 118:-0.864407 119:-0.897363 120:-0.715474 121:-0.988946 122:-0.968927 123:-1 124:-0.899661 125:-1 126:-1 127:-0.962335 128:-1 129:-0.922852 130:-0.349153 131:-0.604331 132:-0.597329 133:-0.475623 134:0.487994 135:-0.782199 136:-0.126177 137:-0.186441 138:-0.958235 139:-0.827455 140:-0.801602 141:-0.362198 142:-0.7046 143:-0.266564 144:-0.81595 145:-0.621651 146:-0.621651 147:-0.796207 148:-0.80226 149:-0.691525 150:-0.724757 151:-0.929545 152:-0.937618 153:-1 154:-0.948981 155:-1 156:-1 157:0.822686 158:-0.729796 159:-0.29655 160:-0.544778 161:-0.915886 162:-0.98076 163:-0.940678 164:-0.931486 165:-0.793568 166:-0.695396 167:-0.79435 168:-0.770023 169:-0.603142 170:-0.723164 171:-0.489373 172:-0.500086 173:0.578462 174:-0.60452 175:0.039096 176:-0.506277 177:-0.0916993 178:-0.624754 179:-0.651712 180:-0.921206 181:-0.4384 182:0.786723 183:-0.0860751 184:-0.938481 185:-1 186:-1 187:-1 188:-1 189:-0.94433 190:-1 191:-0.924132 192:-0.927684 193:-1 194:-0.561017 195:-0.415623 196:-0.199153 197:-0.496878 198:-0.743552 199:-0.792844 200:-0.241043 
-1.0923085566888988 -1.3279902478256216 1.2524525498279433 1.2311011622943955 1.4052469973924642 1:0.129609 2:-0.368189 3:-0.42268 4:-1 5:-1 6:-1 7:-1 8:-1 9:-1 10:-1 11:-0.972509 12:-0.797496 13:-0.306467 14:-0.364669 15:-0.755155 16:-0.391753 17:0.198454 18:-0.882474 19:-0.789849 20:0.539159 21:-0.516097 22:-0.873998 23:-0.31481 24:-0.213871 25:-0.881747 26:-0.773196 27:0.270549 28:-0.842237 29:-0.83947 30:-0.788242 31:-0.80756 32:-0.907216 33:-0.896334 34:-0.883711 35:0.109841 36:-0.584683 37:-0.654759 38:-0.42268 39:-0.570876 40:-0.969716 41:-0.88815 42:-0.277631 43:-0.961189 44:-0.736907 45:-0.621993 46:-0.556095 47:-0.0202631 48:-0.869054 49:-0.721649 50:-0.732438 51:-0.589316 52:-0.485201 53:-0.544953 54:-0.548454 55:-0.142268 56:-0.781296 57:-0.676447 58:-0.484536 59:-0.451734 60:-0.84172 61:-0.896196 62:-0.913844 63:-0.7009 64:-0.370528 65:-0.455789 66:-0.578608 67:-0.189532 68:-0.671496 69:-0.906701 70:-0.921792 71:-0.76726 72:-0.638633 73:-0.562592 74:-0.454215 75:-0.441008 76:-0.821013 77:-0.773827 78:-0.452542 79:-0.102645 80:-0.623427 81:-0.980984 82:-1 83:-0.931701 84:-1 85:-0.875258 86:-0.893686 87:-0.903682 88:-0.727835 89:-0.537669 90:-0.374898 91:0.912642 92:0.431659 93:0.00360825 94:-0.811856 95:-0.837741 96:-0.92359 97:-0.869117 98:-0.828179 99:-0.773196 100:-0.826434 101:-0.97924 102:-1 103:-0.974755 104:-1 105:-0.747423 106:-0.653903 107:-0.493557 108:-0.804388 109:-0.285223 110:-0.216065 111:0.266697 112:0.109867 113:-0.237333 114:-0.229381 115:-0.802461 116:-0.646539 117:-0.879857 118:-0.628866 119:-0.953179 120:-0.800707 121:-0.927781 122:-0.603093 123:-0.412978 124:-0.588041 125:-0.858815 126:-0.842329 127:-0.828179 128:-1 129:-1 130:-0.533432 131:-0.606186 132:0.0103093 133:-0.419053 134:-0.336985 135:-0.432243 136:-0.6811 137:-0.876289 138:-0.961895 139:-0.905545 140:-0.820883 141:-0.723252 142:-0.528351 143:-0.0159325 144:-0.928033 145:-0.76987 146:-0.884935 147:-0.590943 148:-0.603093 149:-0.758763 150:-0.799101 151:-0.871437 152:-0.658505 153:-0.918999 154:-0.906904 155:-0.872165 156:-0.694712 157:0.431998 158:-0.0138951 159:-0.459531 160:-0.870323 161:-0.0423187 162:-0.701588 163:0.46134 164:-0.593684 165:-0.397304 166:-0.642685 167:-0.463918 168:-0.685264 169:-0.683178 170:-0.452749 171:-0.534119 172:-0.635114 173:-0.883232 174:-0.948454 175:-0.950103 176:-0.896048 177:-0.912768 178:-1 179:-1 180:-0.929937 181:-0.968533 182:-0.255799 183:-0.266222 184:-0.831615 185:-0.62543 186:-0.635739 187:-0.446048 188:0.10567 189:-0.695248 190:-0.510309 191:-0.584683 192:-0.670103 193:-0.590206 194:-0.885567 195:-0.876961 196:-0.797036 197:-0.336951 198:-0.71403 199:-0.735395 200:-0.890801 
-0.67474299394357962 -0.76548436367930695 0.70104501331330737 0.89211692457901504 0.80489257645311096 1:-0.490615 2:-0.715743 3:-0.928571 4:-1 5:-0.811847 6:-0.962185 7:-0.895918 8:-0.872913 9:-0.957294 10:-0.780912 11:-0.863946 12:-0.51895 13:-0.416512 14:-0.161536 15:0.0501701 16:-0.225948 17:0.225765 18:-0.379592 19:-0.854396 20:-0.82918 21:0.608722 22:0.471655 23:-0.511697 24:-0.610946 25:0.228992 26:-0.77551 27:-1 28:-0.968769 29:-0.936443 30:-1 31:-0.904762 32:-0.954082 33:-0.965797 34:-1 35:-1 36:-0.917784 37:-1 38:0.265306 39:-0.752232 40:-0.94515 41:-0.978867 42:-1 43:-0.961585 44:-0.952653 45:-1 46:-0.853541 47:0.678395 48:-0.578768 49:-0.0357143 50:-0.161367 51:-0.419295 52:0.358789 53:-0.792121 54:-0.776531 55:-0.416327 56:-0.530977 57:-0.519623 58:-0.489796 59:-0.879406 60:-0.770929 61:-0.163699 62:-0.516764 63:-0.975329 64:-1 65:-0.964089 66:-1 67:-0.770801 68:-1 69:-0.938435 70:-0.961295 71:-1 72:-0.940387 73:-0.951895 74:-1 75:-0.930839 76:-0.64568 77:-0.10454 78:-0.0323716 79:0.776398 80:0.282096 81:-0.0768884 82:-0.245972 83:0.0140306 84:-0.227608 85:-0.547279 86:-0.789541 87:-0.427988 88:0.683673 89:-0.66719 90:-0.628766 91:-0.659237 92:-0.878539 93:-0.954847 94:-0.953444 95:-0.919698 96:-1 97:-0.978409 98:-0.931973 99:-1 100:-0.965455 101:-0.734344 102:-0.209184 103:0.0744375 104:-0.355642 105:1 106:0.0276968 107:-0.540497 108:-0.854788 109:-0.882086 110:-0.720663 111:-0.686557 112:-0.862682 113:-0.880808 114:-1 115:-1 116:-0.941691 117:-1 118:-1 119:-1 120:-0.974036 121:-0.992359 122:-1 123:-1 124:-0.954694 125:-0.965064 126:-1 127:-0.931973 128:-0.929006 129:-0.895496 130:-0.66414 131:-0.707653 132:-0.636364 133:-0.357332 134:1 135:-0.634723 136:-0.408163 137:-0.632653 138:-0.698269 139:-0.813017 140:-0.862673 141:-0.172895 142:-0.899964 143:-1 144:-1 145:-0.943055 146:-1 147:-1 148:-1 149:-0.960204 150:-1 151:-0.936375 152:-1 153:-0.973275 154:-0.631416 155:-0.620408 156:0.20869 157:0.783163 158:0.512866 159:-0.331307 160:-0.91201 161:-0.894732 162:-0.357143 163:-0.892857 164:-0.907191 165:-0.664443 166:-0.174772 167:-0.57551 168:-0.221188 169:-0.462419 170:-0.583333 171:-0.822643 172:-0.729128 173:-0.807372 174:-0.795918 175:-0.604898 176:-0.828515 177:-0.784144 178:-0.564309 179:-0.292317 180:-0.720907 181:-0.766591 182:-0.859694 183:0.551621 184:0.805556 185:-0.369728 186:-0.278912 187:-0.831293 188:-0.915816 189:-0.949726 190:-1 191:-1 192:-1 193:-0.932398 194:-1 195:-1 196:-1 197:-0.974758 198:-1 199:-0.92517 200:0.16308 
-0.95536079551141329 -0.95305935465756009 0.88182400493162261 0.92131587483841126 1.1184712828651286 1:-0.745866 2:-0.945378 3:-0.794118 4:-0.415175 5:-0.849354 6:-0.727509 7:-0.35 8:-0.328431 9:-0.753813 10:-0.705306 11:-0.921569 12:-0.961485 13:-0.90107 14:-0.530076 15:0.358252 16:-0.545518 17:-0.658088 18:0.0431373 19:-0.740196 20:-0.836756 21:-0.788309 22:-0.736383 23:-0.400526 24:0.868984 25:0.180796 26:-0.856209 27:-0.697933 28:-0.429887 29:-0.72521 30:-0.748278 31:-0.588235 32:-0.647059 33:0.183007 34:-1 35:-1 36:-1 37:-1 38:-0.960784 39:-1 40:-0.9963 41:-0.293961 42:-1 43:-1 44:-0.977255 45:-0.748366 46:-0.788927 47:-0.820825 48:-0.595287 49:-0.691176 50:-0.830369 51:-0.609447 52:-0.102467 53:-0.766986 54:-1 55:-0.694118 56:-0.0987395 57:1 58:-0.0896359 59:-0.304813 60:-0.850716 61:-0.985557 62:-1 63:-0.976297 64:-0.767205 65:-0.620475 66:-0.866422 67:-0.889894 68:-0.826444 69:-0.733824 70:-0.256254 71:0.460784 72:-0.541796 73:-0.676471 74:-0.307958 75:0.0631808 76:1 77:-0.655862 78:-0.925625 79:-0.868713 80:-0.837676 81:0.117064 82:0.0263158 83:0.0392157 84:-0.614107 85:-0.881373 86:-1 87:-1 88:-0.935294 89:-0.200603 90:-0.375817 91:-0.672601 92:-0.688805 93:-0.696324 94:-0.642157 95:-0.69139 96:-0.418685 97:-0.751066 98:-0.869281 99:-0.676471 100:-0.888603 101:-0.863417 102:-0.721405 103:-0.543866 104:-0.28316 105:-0.819853 106:-0.473389 107:-0.277574 108:-0.0233786 109:-0.546841 110:-0.671977 111:-0.73231 112:-0.296359 113:-0.618273 114:-0.840686 115:-0.937381 116:-0.327731 117:-0.619155 118:-0.764706 119:-0.866422 120:-0.811997 121:-0.749203 122:-0.865196 123:-0.616205 124:-0.434118 125:-0.932868 126:0.0495963 127:-0.96732 128:-0.886316 129:-0.564909 130:-0.677311 131:-0.500654 132:-0.388592 133:-0.772513 134:-0.519608 135:-0.676044 136:-0.924183 137:-0.960784 138:-0.836932 139:-0.461049 140:-0.830724 141:-0.981814 142:-1 143:-1 144:-0.703431 145:-0.562302 146:-0.50759 147:-0.929272 148:-0.862745 149:-0.923529 150:-0.952237 151:-0.755479 152:-0.242239 153:-0.922969 154:-0.336007 155:-0.14902 156:1 157:-0.472851 158:-0.531117 159:-0.743012 160:-0.896626 161:-0.98956 162:-0.983307 163:-0.948529 164:-0.10831 165:-0.82089 166:-0.886733 167:-0.923529 168:-0.750577 169:-0.655667 170:-1 171:-0.659197 172:-0.783125 173:-0.555822 174:-0.460784 175:-0.762745 176:-0.670479 177:0.659125 178:1 179:-0.546713 180:-0.905576 181:-0.582494 182:-0.258578 183:-0.302191 184:0.20098 185:-0.109477 186:0.385621 187:-0.311111 188:-0.838235 189:-1 190:-0.883578 191:-1 192:-0.87451 193:-0.935049 194:-0.945588 195:-0.882992 196:-1 197:-1 198:-0.851662 199:-0.388889 200:-0.743527 
-0.54189050856017351 -0.61680443785974981 0.68194780941545263 0.27165869608641052 0.69570173346316855 1:-0.740021 2:-0.373214 3:-0.65 4:-0.307609 5:-0.308537 6:-0.60625 7:-0.29875 8:0.0119318 9:-0.581481 10:-0.409559 11:-0.833333 12:-0.705357 13:-0.831818 14:-0.786017 15:-0.752604 16:-0.578571 17:-0.709375 18:-0.905 19:-0.949038 20:-0.706819 21:-0.783374 22:-0.908333 23:-0.368598 24:-0.152727 25:0.21875 26:-0.679167 27:-0.0371622 28:-0.502652 29:-0.532857 30:-0.293919 31:-0.416667 32:-0.38125 33:-0.874306 34:-0.859 35:-0.913182 36:-0.949643 37:-1 38:-0.9 39:-0.783203 40:-0.836038 41:-0.859381 42:-1 43:-0.952941 44:-0.71 45:-0.725 46:-0.730882 47:-0.680172 48:-0.682456 49:-0.4375 50:-0.621512 51:-0.430909 52:-0.167742 53:-0.745349 54:-0.4525 55:-0.805 56:-0.602232 57:-0.0192308 58:0.875 59:-0.482955 60:-0.6692 61:-0.762636 62:-0.895536 63:-0.909335 64:-0.915196 65:-0.95601 66:-0.772917 67:-0.766026 68:-0.911486 69:-0.585208 70:-0.336207 71:-0.548485 72:-0.269737 73:-0.705357 74:-0.117647 75:0.101389 76:-0.511702 77:-0.451531 78:-0.146552 79:-0.497826 80:-0.536626 81:-0.598609 82:-0.692105 83:-0.834375 84:-0.507986 85:-0.142917 86:-0.699219 87:-0.260357 88:-0.46375 89:-0.643269 90:-0.431548 91:-0.536184 92:-0.603226 93:-1 94:-1 95:-0.852446 96:-0.768382 97:-0.62971 98:-0.583333 99:-0.79375 100:-0.919545 101:-0.77012 102:-0.773958 103:-0.755128 104:0.246324 105:-0.540625 106:-0.244643 107:-0.0277344 108:-0.288462 109:-0.566667 110:-0.695833 111:-0.786685 112:-0.271071 113:-0.513298 114:-0.878125 115:-0.800403 116:-0.928571 117:-0.902885 118:-0.85 119:-1 120:-0.82158 121:-0.985204 122:-1 123:-0.466176 124:-0.6115 125:-0.786017 126:-0.808824 127:-0.875 128:-0.594149 129:0.194828 130:0.131429 131:-0.562292 132:-0.740152 133:-0.668519 134:-0.885156 135:-0.827899 136:-0.758333 137:-0.825 138:-0.930696 139:-0.73277 140:-0.680857 141:-0.913131 142:-0.918304 143:-0.904545 144:-0.970913 145:-1 146:-0.930242 147:-1 148:-0.9125 149:-0.9025 150:-0.573718 151:-0.688235 152:-0.309896 153:-0.83631 154:-0.830682 155:-0.3025 156:0.0282258 157:0.00817308 158:0.434783 159:-0.180851 160:-0.741513 161:-0.675541 162:-0.936149 163:-0.7375 164:-0.88631 165:-0.862981 166:-0.518617 167:-0.74 168:-0.491176 169:-0.615854 170:-0.489583 171:-0.435119 172:-0.557576 173:-0.669643 174:-0.25 175:-0.5765 176:-0.495833 177:-0.206731 178:-0.0511628 179:-0.903676 180:-0.910619 181:0.121641 182:0.332031 183:-0.0294118 184:-0.319444 185:-0.31875 186:-0.47 187:-0.586667 188:-0.38125 189:-0.630488 190:-0.332031 191:-1 192:-1 193:-0.834375 194:-0.791875 195:-1 196:-1 197:-0.938158 198:-0.968478 199:-0.8625 200:-0.902512 
-0.82171050075953245 -0.81786730109951578 0.60499038423560636 0.88073856470009582 0.63407618598493132 1:-0.712924 2:-0.797403 3:0.272727 4:-0.225296 5:0.229268 6:-0.595722 7:-0.165455 8:-0.773554 9:-1 10:-0.921925 11:-0.951515 12:-0.928571 13:-1 14:-1 15:-0.92803 16:-0.923377 17:-0.929545 18:0.450909 19:-0.740559 20:-0.735507 21:-0.760491 22:0.644444 23:0.0634146 24:-0.84595 25:-0.687166 26:-0.733333 27:-0.906634 28:-0.888705 29:-1 30:-0.906634 31:-0.830303 32:-1 33:-1 34:-0.794909 35:-0.93686 36:-1 37:0.556025 38:-0.709091 39:-0.936932 40:-0.975706 41:-0.148046 42:-0.889218 43:-1 44:-0.873455 45:-1 46:-0.739037 47:-0.734169 48:-0.942265 49:-1 50:-0.921353 51:-0.275702 52:0.210557 53:-0.506131 54:-0.601818 55:-0.243636 56:-0.55 57:0.0461538 58:0.038961 59:-0.140496 60:-0.960515 61:-0.796286 62:-0.848052 63:-0.912083 64:0.171836 65:-0.808042 66:-0.834848 67:-1 68:-0.935627 69:-0.945152 70:-0.931034 71:-1 72:-0.78756 73:-0.914286 74:-0.465241 75:-0.753535 76:-0.842166 77:-0.680891 78:1 79:0.33913 80:-0.611668 81:1 82:-0.888038 83:-1 84:-1 85:-0.926667 86:-1 87:-1 88:-1 89:-0.925874 90:-0.614141 91:-0.932536 92:-0.855718 93:-0.919545 94:-0.958523 95:-0.928458 96:-0.865241 97:-0.76917 98:-0.69697 99:1 100:0.982051 101:-0.874844 102:-0.765152 103:-0.910956 104:-0.879144 105:0.559091 106:0.953247 107:-0.776705 108:0.034965 109:0.365657 110:-0.944697 111:-0.813834 112:-0.510649 113:-0.929207 114:-0.881818 115:-0.767742 116:-1 117:-1 118:-0.890909 119:-1 120:1 121:0.0523269 122:-0.95 123:-1 124:-0.919273 125:-1 126:-1 127:-0.939394 128:-1 129:-0.937931 130:-0.476364 131:-0.826364 132:-0.784022 133:-0.939731 134:-0.832955 135:-0.849802 136:-0.437576 137:-0.6 138:-0.260759 139:0.110565 140:-0.738391 141:-0.82068 142:-0.821753 143:0.38843 144:-0.915385 145:-0.898534 146:-0.898534 147:-0.934416 148:-1 149:-0.929091 150:-0.911422 151:-0.886631 152:-1 153:-0.904762 154:-0.917906 155:-0.830909 156:-0.760704 157:0.384965 158:1 159:0.0723404 160:-0.833368 161:-0.63037 162:-0.349877 163:-0.713636 164:-0.944877 165:-0.933566 166:-0.929981 167:-0.905455 168:-1 169:-0.920177 170:-1 171:-0.494372 172:-0.195592 173:-0.725417 174:-0.272727 175:-0.472 176:-0.511111 177:-0.0769231 178:-0.309937 179:-0.439572 180:-0.807071 181:0.287129 182:1 183:-0.0588235 184:-0.505051 185:-0.867879 186:-0.74303 187:-1 188:-0.925 189:-0.910421 190:-1 191:-0.755844 192:-1 193:-0.879545 194:-0.899091 195:-0.927668 196:-0.856818 197:-0.820096 198:-0.220553 199:-0.933333 200:-0.735148 
-0.19257450884586552 -0.26856883533327808 0.11449791083925356 0.35996549067259626 0.26021135966323256 1:-0.728408 2:-1 3:-0.727273 4:-0.944664 5:-0.960089 6:-0.975936 7:-0.933766 8:-1 9:-0.945647 10:-0.944232 11:-0.930736 12:-0.846939 13:-0.956316 14:-0.688752 15:-0.434524 16:-0.0148423 17:-0.0941558 18:0.381818 19:0.00599401 20:-0.448633 21:0.926275 22:1 23:0.00126703 24:-0.614876 25:-0.851031 26:-1 27:-0.93331 28:-0.960252 29:-0.959555 30:-1 31:-0.939394 32:-0.941558 33:-1 34:-0.926753 35:-1 36:-0.947681 37:-1 38:-0.948052 39:-1 40:-0.573463 41:-0.568735 42:-1 43:-0.975554 44:-1 45:-1 46:-0.9534 47:-1 48:-0.958761 49:-0.883117 50:-0.831471 51:-0.408737 52:0.18894 53:-0.382664 54:-0.383766 55:0.148052 56:-0.494898 57:0.222777 58:0.113173 59:-0.309327 60:-0.285403 61:-0.31282 62:-0.963822 63:-0.968601 64:-1 65:-0.954296 66:-1 67:-0.951382 68:-1 69:-0.960823 70:-0.950739 71:-1 72:-0.924129 73:-0.938776 74:-0.923606 75:-0.471861 76:-0.0417242 77:0.48158 78:0.182266 79:1 80:-0.517329 81:-0.427809 82:-0.360219 83:-0.569805 84:-0.882035 85:0.414286 86:-0.0178571 87:-0.23154 88:-0.571429 89:-0.046953 90:-0.685013 91:-0.759057 92:-0.896942 93:-0.712662 94:-0.940747 95:-0.948899 96:-1 97:-0.94504 98:-1 99:-0.857143 100:-0.81097 101:-0.968511 102:-0.9329 103:-0.904595 104:-0.827349 105:-0.681818 106:-0.215213 107:-0.681006 108:-0.260739 109:0.200577 110:-0.44697 111:-0.601073 112:-0.0096475 113:-0.241503 114:-0.704545 115:-0.626728 116:-0.554731 117:-0.495504 118:-0.844156 119:-0.823052 120:-0.813419 121:0.0685146 122:-0.964286 123:-0.676471 124:0.153247 125:-0.421968 126:-0.304813 127:-0.350649 128:-0.789168 129:-0.55665 130:-0.412245 131:-0.37987 132:-0.807163 133:-0.784752 134:-1 135:-0.964239 136:-1 137:-0.974026 138:-1 139:-1 140:-0.971057 141:-0.79133 142:-0.702922 143:-1 144:-0.96978 145:-1 146:-0.927524 147:-1 148:-0.954545 149:-1 150:-0.93673 151:-1 152:-0.928301 153:-0.965986 154:-0.941362 155:-0.838961 156:-0.230834 157:0.163836 158:0.490683 159:1 160:-0.551722 161:-0.463583 162:-0.955774 163:-1 164:-0.960627 165:-1 166:-1 167:-0.966234 168:-1 169:-0.828952 170:-0.734848 171:-0.819419 172:-0.25305 173:-0.117413 174:-0.025974 175:-0.12 176:-0.257937 177:-0.010989 178:-0.0758079 179:-0.0993125 180:-0.86815 181:-0.0911295 182:0.741071 183:0.806723 184:-0.0808081 185:-0.528139 186:-0.81645 187:-1 188:-0.946429 189:-0.936015 190:-1 191:-0.912801 192:-0.916883 193:-1 194:-0.927922 195:-1 196:-0.948864 197:-1 198:-0.96725 199:-0.952381 200:-0.450273 
-1.3564554260118338 -1.4161685806716056 1.2405632926340664 1.3599272749284208 1.5288051258630622 1:-0.912589 2:-0.941353 3:-1 4:-0.910297 5:-1 6:-0.941486 7:-0.516842 8:-0.672249 9:-0.911891 10:-0.954799 11:-0.915789 12:-0.793233 13:-0.858373 14:-0.855843 15:-0.875 16:0.109023 17:-0.469737 18:1 19:-0.120243 20:-0.490909 21:-0.98209 22:-0.974269 23:-0.888062 24:-0.108134 25:-0.879257 26:-0.845614 27:1 28:-0.645614 29:0.573534 30:1 31:-0.705263 32:-1 33:-0.964717 34:-0.821895 35:-0.92689 36:-1 37:-0.960832 38:-0.831579 39:-0.890461 40:-0.916898 41:-0.931378 42:-0.903794 43:-0.900929 44:-0.584842 45:-0.459649 46:-0.811146 47:-0.499819 48:-0.76602 49:-0.668421 50:0.047246 51:-0.0415311 52:-0.474363 53:-0.642595 54:-0.769474 55:-0.890526 56:-0.81391 57:-0.559514 58:-0.172932 59:0.0574163 60:-0.65046 61:-0.804382 62:-0.64812 63:-0.236509 64:-0.500103 65:-0.777733 66:-0.378509 67:-0.645344 68:-0.66458 69:-0.523684 70:-0.121597 71:-0.904944 72:-0.938504 73:-0.950376 74:-0.690402 75:-0.42924 76:-0.543113 77:-0.0762621 78:-0.84029 79:-0.929519 80:-0.997146 81:-0.544167 82:-0.48144 83:-0.790789 84:-0.808772 85:-0.617895 86:-0.819079 87:-0.67218 88:-0.617895 89:0.115789 90:-0.106433 91:0.0936288 92:-0.457046 93:-0.813684 94:-0.711842 95:-0.544394 96:-1 97:-0.933181 98:-0.964912 99:-1 100:-0.93545 101:-0.936193 102:-0.836842 103:-0.896896 104:-0.895046 105:-0.161842 106:-0.646617 107:0.0773026 108:-0.00134953 109:-0.756725 110:-0.519737 111:-0.281465 112:-0.338947 113:0.475476 114:-0.692105 115:-0.831919 116:-0.879699 117:-0.918219 118:-1 119:-0.952193 120:-0.972237 121:-0.696142 122:-0.507895 123:-0.475542 124:-0.672842 125:-0.49545 126:-0.195046 127:-0.719298 128:-0.511758 129:-0.676588 130:-0.696842 131:-0.698421 132:-0.8437 133:-0.825536 134:-0.871053 135:-0.884058 136:-0.959298 137:-0.978947 138:-0.961093 139:-0.871408 140:0.126252 141:-0.502779 142:-0.965602 143:-1 144:-0.779555 145:-0.00135823 146:-0.236333 147:-0.696241 148:-0.410526 149:-0.466316 150:1 151:-0.737461 152:-0.651316 153:-0.834586 154:-0.667305 155:-0.804211 156:-0.826825 157:-0.434008 158:-0.949657 159:-0.931019 160:-0.971092 161:-0.633296 162:-0.480228 163:-0.226316 164:-0.712782 165:1 166:-0.391937 167:-0.753684 168:-0.839319 169:-0.861361 170:-0.871053 171:-0.817043 172:-0.906858 173:-0.523093 174:-0.894737 175:-0.796211 176:-0.85848 177:-0.910931 178:-0.900122 179:-0.837771 180:-0.866141 181:-0.967096 182:-0.855263 183:-0.421053 184:-0.88538 185:-0.808772 186:-0.776842 187:-0.65193 188:-0.218421 189:-0.22208 190:1 191:-0.293233 192:-0.191579 193:-0.0236842 194:-0.766316 195:-0.832494 196:-0.378289 197:-1 198:-0.973455 199:-1 200:-0.294341 
-0.85928297439014489 -0.93302057784233949 0.53236881689925386 1.0535331811216 0.79960091229760821 1:-0.426664 2:-0.904762 3:-0.162393 4:0.820884 5:-0.159475 6:-0.841629 7:-0.912821 8:-0.787102 9:-0.928458 10:-1 11:-1 12:-0.932845 13:-1 14:-0.941475 15:-0.932336 16:-0.927961 17:-0.867521 18:-0.0905983 19:-0.756082 20:0.326171 21:0.34178 22:0.128205 23:-0.227434 24:-0.782751 25:-0.803922 26:-0.937322 27:-0.82444 28:-0.843046 29:-0.840293 30:-0.91222 31:-0.840456 32:-1 33:0.203229 34:-1 35:-0.940637 36:-0.931136 37:-1 38:-0.794872 39:-0.584936 40:-0.768281 41:-0.948707 42:0.0936196 43:-0.806938 44:-0.603419 45:-0.373219 46:-0.815988 47:-0.937518 48:-0.945719 49:-0.923077 50:-0.630292 51:-0.610878 52:0.138131 53:-0.767839 54:-0.875214 55:-0.377778 56:-0.758242 57:-0.552926 58:-0.5116 59:-0.393939 60:-0.294888 61:-0.448525 62:-0.952381 63:-0.876014 64:-0.768058 65:-0.939842 66:-0.689459 67:-0.104098 68:-0.757912 69:-0.948433 70:-0.935161 71:-0.922818 72:-0.700405 73:-0.758242 74:-0.899447 75:-0.652422 76:-0.925805 77:-0.699983 78:-0.0922487 79:0.487923 80:0.0404908 81:-0.637762 82:-0.263158 83:-0.773504 84:-0.741216 85:-0.793162 86:-0.823718 87:-0.840293 88:-0.774359 89:-0.442472 90:-0.948175 91:-0.936572 92:-0.660877 93:-0.848718 94:-0.922009 95:-0.932739 96:-0.936652 97:-0.92766 98:-0.77208 99:0.316239 100:1 101:1 102:-0.602564 103:-0.832566 104:-0.715938 105:-0.0576923 106:-0.311355 107:-0.720085 108:-0.837826 109:-0.802469 110:-0.948006 111:-1 112:-1 113:-0.933442 114:-1 115:-0.945409 116:-1 117:-1 118:-0.897436 119:-0.767094 120:-0.171748 121:-0.331682 122:-0.952991 123:-0.939165 124:-1 125:-1 126:-0.934641 127:-1 128:-1 129:-1 130:-1 131:0.142735 132:-0.695416 133:-0.773346 134:-0.842949 135:-0.95293 136:-0.933903 137:-0.931624 138:-0.873634 139:0.461769 140:0.975606 141:-0.137615 142:-0.32967 143:-0.934732 144:-1 145:-0.904604 146:-0.904604 147:-1 148:-0.820513 149:-0.8 150:-0.916721 151:-0.786828 152:-0.905627 153:-0.91046 154:-0.922818 155:-0.841026 156:-0.662531 157:-0.387245 158:0.716834 159:0.00818331 160:-0.709286 161:-0.392307 162:-0.56341 163:0.166667 164:-0.585402 165:-0.937541 166:-0.93417 167:-0.822222 168:-1 169:-0.399625 170:-0.790598 171:-0.643468 172:-0.697488 173:-0.677307 174:-0.57265 175:-0.66906 176:-0.712726 177:-0.638396 178:-0.594514 179:-0.341378 180:-0.669122 181:1 182:0.410256 183:-0.0598291 184:-0.813865 185:-0.813675 186:-1 187:-0.858689 188:-0.929487 189:-0.915781 190:-0.898504 191:-0.885226 192:-0.671795 193:-0.660256 194:-0.905128 195:-1 196:-0.932692 197:-0.788574 198:-0.3534 199:-0.373219 200:-0.698626 
-0.24870899802305071 -0.31824641404301529 0.27097846696892219 0.42926794345879099 0.23902928532963647 1:-0.784415 2:-0.644377 3:-0.553191 4:-0.72803 5:-0.869227 6:-0.842303 7:-0.131915 8:-0.337524 9:-0.554768 10:0.370463 11:-0.432624 12:-0.164134 13:-0.7853 14:-0.708619 15:-1 16:-0.820669 17:-0.917553 18:-0.919149 19:-0.913257 20:-0.350974 21:1 22:0.248227 23:-0.0949663 24:-0.098646 25:-0.389862 26:-0.921986 27:-0.890742 28:-0.934881 29:-1 30:-0.890742 31:-1 32:-1 33:-0.928684 34:-1 35:-1 36:-0.914286 37:-1 38:-0.829787 39:-0.852394 40:-0.549689 41:-0.976966 42:-0.805542 43:-0.639549 44:-0.950638 45:-0.843972 46:-0.923655 47:-0.844461 48:-0.797312 49:-0.329787 50:-0.631865 51:-0.152418 52:0.416609 53:-0.638793 54:-0.767021 55:-0.114894 56:-0.548632 57:0.00163666 58:0.215805 59:-0.497099 60:-0.87374 61:-0.396982 62:-0.822188 63:-0.897118 64:-0.927826 65:-0.925123 66:-0.903369 67:-1 68:-0.924669 69:-1 70:-0.838591 71:-0.903933 72:-1 73:-0.197568 74:0.251564 75:0.44208 76:0.200543 77:0.213634 78:0.0491563 79:-0.92877 80:-0.61039 81:-0.538872 82:-1 83:-0.718085 84:-0.613475 85:-0.828369 86:-0.0492021 87:-0.138602 88:-0.508511 89:-0.392799 90:-1 91:-0.684211 92:-0.49348 93:-0.811702 94:-0.708777 95:-0.748844 96:-0.842303 97:-1 98:-0.432624 99:-0.648936 100:-0.734523 101:-0.89267 102:-1 103:-0.895799 104:-0.78786 105:-0.087766 106:1 107:-0.128989 108:0.312057 109:0.72104 110:-0.546986 111:-0.564292 112:-0.904559 113:-0.834314 114:-0.723404 115:-0.932052 116:-0.878419 117:-1 118:-0.744681 119:-0.903369 120:-0.793356 121:-0.957855 122:-0.882979 123:-0.469962 124:-0.244255 125:-0.490083 126:-0.51189 127:-0.361702 128:-0.654595 129:-0.418929 130:-0.474772 131:-0.458156 132:-0.684075 133:-0.717888 134:-0.804521 135:-0.882825 136:-0.588652 137:-1 138:-1 139:-0.87004 140:-0.773044 141:-0.497211 142:-0.930471 143:-1 144:-0.950491 145:-1 146:-0.881263 147:-1 148:-0.925532 149:-1 150:-0.79269 151:-0.867334 152:-1 153:-0.944276 154:-0.903933 155:-0.0106383 156:-0.0199039 157:0.334697 158:0.526364 159:-0.233137 160:-0.844808 161:-0.629187 162:-0.746406 163:-1 164:-0.935495 165:-1 166:-1 167:-0.944681 168:-0.675219 169:-0.626362 170:-0.478723 171:-0.630193 172:-0.152805 173:-0.67868 174:-0.361702 175:-0.382128 176:-0.570922 177:-0.189853 178:-0.495299 179:0.31164 180:-0.583062 181:0.794156 182:0.682181 183:0.170213 184:-0.189125 185:-0.458865 186:-0.849645 187:-0.912057 188:-1 189:-0.895174 190:-0.87367 191:-0.857143 192:-1 193:-0.859043 194:-1 195:-0.915356 196:-1 197:-1 198:-1 199:-0.141844 200:-0.95335 
-0.81478136850198535 -0.929641532770904 0.70371984673007526 1.1739294761294305 1.0931435714051385 1:-0.871727 2:-0.896346 3:-0.869767 4:-0.920728 5:-0.942825 6:-0.965527 7:-0.857674 8:-0.710359 9:-0.727476 10:-0.520657 11:-0.603101 12:-0.634551 13:-0.906131 14:-0.554119 15:-0.374031 16:0.568106 17:-0.17093 18:-0.540465 19:-0.601789 20:-0.523353 21:0.18248 22:-0.158656 23:-0.233352 24:-0.645328 25:-0.679891 26:-0.829457 27:-0.761157 28:-0.943058 29:-0.91309 30:-0.808925 31:-0.739535 32:-0.748837 33:-0.93764 34:-0.842605 35:-0.935391 36:-0.887575 37:-0.826933 38:-0.813953 39:-0.774128 40:0.0543277 41:-0.819933 42:0.388643 43:-0.877428 44:-0.805767 45:-0.829457 46:-0.599453 47:-0.251965 48:-0.70461 49:-0.455814 50:-0.235479 51:-0.523552 52:-0.690323 53:-0.778908 54:-0.796279 55:-0.75814 56:-0.901329 57:-0.854025 58:-0.734219 59:-0.780127 60:-0.594677 61:0.783155 62:-0.844518 63:-0.910038 64:-0.842225 65:-0.803578 66:-0.78876 67:-0.965176 68:-0.901194 69:-0.85969 70:-0.823577 71:-0.789993 72:-0.89131 73:-0.736877 74:-0.781122 75:-0.558656 76:-0.232855 77:1 78:-0.40016 79:-0.813145 80:-0.63261 81:-0.876968 82:-0.885435 83:-0.876744 84:-0.887339 85:-0.774884 86:-1 87:-1 88:-0.969302 89:-1 90:-1 91:-0.930967 92:-0.187997 93:-0.300233 94:-0.830233 95:0.0614762 96:-0.000273598 97:-0.468554 98:0.364341 99:-0.64186 100:-0.745421 101:-0.79691 102:-0.711628 103:-0.407752 104:0.267579 105:0.0255814 106:-0.125581 107:-0.581105 108:-0.38223 109:-0.785013 110:-0.745349 111:-0.682508 112:-0.791362 113:-0.565364 114:-0.727907 115:-0.940585 116:-0.893688 117:-0.855456 118:-0.832558 119:-0.873256 120:-0.87516 121:-0.995169 122:-0.718605 123:-0.602736 124:-0.834791 125:-0.649665 126:-0.324213 127:-0.472868 128:-0.870559 129:-0.142582 130:-0.272824 131:-0.733488 132:-0.668499 133:-0.814987 134:-0.515698 135:-0.667004 136:-0.568372 137:-0.813953 138:-0.982808 139:-0.886361 140:-0.91295 141:-0.248297 142:-0.54402 143:-0.325159 144:-0.956708 145:-0.948087 146:-0.896174 147:-0.93289 148:-0.934884 149:-0.963721 150:-0.954681 151:-0.883995 152:-0.84593 153:-0.975637 154:-0.789993 155:-0.884651 156:-0.724531 157:-0.333095 158:-0.065723 159:-0.0856012 160:-0.260667 161:1 162:-0.794092 163:-0.853488 164:-0.858989 165:-0.864043 166:-0.247699 167:-0.395349 168:-0.621341 169:-0.714124 170:-0.886047 171:-0.741307 172:-0.670754 173:-0.929758 174:-0.813953 175:-0.86493 176:-0.906202 177:-0.842576 178:-0.602812 179:-0.354856 180:-0.911473 181:0.194763 182:0.215116 183:-0.0670315 184:-0.645478 185:-0.594419 186:-0.737054 187:-0.807752 188:-0.923256 189:-0.862507 190:-0.944767 191:-0.875083 192:-0.88093 193:-0.938372 194:-0.896744 195:-0.962993 196:-0.926744 197:-0.976989 198:-0.929626 199:-0.727132 200:0.787277 
-0.49209693194673776 -0.56618859586086556 0.39105633442106025 0.61319967006856635 0.39511920767590103 1:-0.976949 2:-0.942857 3:-1 4:-0.956299 5:-1 6:-0.961991 7:-0.895385 8:-0.936131 9:-1 10:-0.911916 11:-1 12:-0.838828 13:-0.724009 14:-0.683963 15:-0.309829 16:-0.135531 17:0.708974 18:0.169231 19:-0.811834 20:0.40169 21:0.255726 22:-0.548718 23:-0.0729206 24:0.346946 25:1 26:-0.473504 27:-0.947332 28:-1 29:-0.968059 30:-1 31:-1 32:-0.953846 33:-1 34:-1 35:-1 36:-1 37:-0.961837 38:-1 39:-0.644231 40:-0.415316 41:-0.529669 42:-0.562552 43:-1 44:-0.976205 45:-1 46:-1 47:-0.925022 48:-0.902294 49:-0.861538 50:-0.645081 51:-0.474685 52:-0.0610422 53:-0.582111 54:-0.513333 55:-0.626667 56:-0.891209 57:0.394872 58:0.465201 59:1 60:-0.769625 61:-0.0724959 62:-0.657143 63:-1 64:-0.965209 65:-1 66:-1 67:-1 68:-1 69:-0.96906 70:-1 71:-1 72:-1 73:-0.951648 74:-0.939668 75:-0.235328 76:0.513584 77:-0.414966 78:0.82847 79:-0.244593 80:-0.049816 81:0.473675 82:-0.684211 83:0.630769 84:0.739031 85:-0.462222 86:-0.823718 87:-0.872234 88:-0.695385 89:-0.247337 90:-0.813431 91:-0.695547 92:-0.91861 93:-0.455385 94:-0.976603 95:-0.959643 96:-1 97:-0.956596 98:-0.931624 99:-1 100:-0.992723 101:-1 102:-1 103:-0.94977 104:-1 105:-1 106:-0.931136 107:-0.832051 108:-0.659435 109:0.659259 110:0.622222 111:0.0501672 112:-0.677949 113:-0.0815057 114:-0.6 115:-0.77072 116:-0.70696 117:-0.880473 118:-0.876923 119:-0.860256 120:-0.630031 121:-0.672592 122:-0.774359 123:-0.52549 124:0.00184615 125:-0.473272 126:1 127:-0.521368 128:-0.881069 129:-0.299735 130:-0.704615 131:-0.738803 132:-0.908625 133:-0.864008 134:-0.937179 135:-0.915273 136:-1 137:-0.938462 138:-0.943135 139:-0.968676 140:-0.981692 141:-0.840698 142:-0.731868 143:-0.843357 144:-0.880671 145:-0.484864 146:-0.942763 147:-1 148:-1 149:-1 150:-0.950033 151:-1 152:-1 153:-0.973138 154:-0.907382 155:-0.523077 156:0.856079 157:0.470611 158:0.128205 159:-0.193453 160:-0.891273 161:-0.800007 162:-0.825364 163:-0.623077 164:-0.844526 165:-0.812623 166:-0.921004 167:-0.813333 168:-0.686878 169:-0.864916 170:-0.916239 171:-0.786081 172:-0.546232 173:-0.574045 174:-0.641026 175:-0.602872 176:-0.310541 177:0.952663 178:0.411091 179:-0.841931 180:-0.960551 181:0.321075 182:-0.365385 183:-0.104072 184:0.368091 185:0.378803 186:-0.637607 187:-0.957607 188:-0.957692 189:-1 190:-1 191:-0.931136 192:-1 193:-1 194:-1 195:-0.714381 196:-0.798077 197:-0.873144 198:-0.87068 199:-0.736752 200:-0.827185 
-0.82071795743255693 -1.0062893694963186 1.336877577481304 1.0257420739718677 1.0635225768725067 1:-0.817299 2:-0.931217 3:-0.82716 4:-0.789587 5:-0.696477 6:-0.839869 7:-0.559259 8:-0.231201 9:-0.276635 10:-0.257807 11:-0.604938 12:0.0185185 13:-0.626263 14:-0.830927 15:-0.657922 16:-0.219577 17:-0.282407 18:-0.906173 19:-0.949668 20:-0.866548 21:-0.972931 22:-0.909465 23:-0.343571 24:-0.0585859 25:0.486928 26:-0.547325 27:-0.239239 28:-0.546577 29:-0.730864 30:-0.429429 31:-0.596708 32:-0.833333 33:-0.958619 34:-0.860741 35:-0.957127 36:-0.801058 37:-0.908125 38:-0.851852 39:-0.871528 40:-0.352753 41:-0.942471 42:-0.962389 43:-0.34931 44:-0.770864 45:-0.81893 46:-0.822803 47:-0.729246 48:-0.843188 49:-0.611111 50:-0.572782 51:-0.297419 52:0.0274791 53:-0.664657 54:-0.504321 55:-0.293827 56:-0.345238 57:-0.354226 58:-0.382716 59:-0.708193 60:-0.937338 61:0.0697201 62:-0.862434 63:-0.910455 64:-0.874365 65:-0.913105 66:-0.83179 67:-0.953783 68:-0.912579 69:-0.962757 70:-0.859515 71:-0.721287 72:-0.423002 73:-0.185185 74:0.30719 75:0.840878 76:-0.410559 77:-0.0791131 78:-0.250745 79:-0.876006 80:-0.868848 81:-0.895974 82:-0.923977 83:-0.91821 84:-1 85:-0.701235 86:-0.74537 87:-0.730864 88:-0.755556 89:-0.748338 90:-0.812855 91:-0.175439 92:-0.55914 93:-0.344444 94:-0.352238 95:-0.417069 96:-0.130719 97:-0.660404 98:-0.876543 99:-0.796296 100:-0.688662 101:-0.946347 102:-0.904321 103:-1 104:-0.794844 105:-0.924383 106:-0.0881834 107:-0.94946 108:-0.18012 109:0.711934 110:-0.47428 111:-0.620773 112:-0.612346 113:-0.423168 114:-0.157407 115:-0.566308 116:-0.294533 117:-0.808167 118:-0.777778 119:-0.83179 120:-0.686256 121:-0.947214 122:-0.830247 123:-0.824256 124:-0.835556 125:-0.788659 126:-0.811184 127:-0.711934 128:-0.856843 129:-0.789272 130:-0.0349206 131:-0.646296 132:-0.450056 133:-0.54984 134:0.0208333 135:-0.422079 136:-0.761317 137:-0.82716 138:-0.817471 139:-1 140:-0.877391 141:-0.747125 142:-0.515873 143:-0.905724 144:-0.971273 145:-0.862206 146:-0.862206 147:-0.821869 148:-0.95679 149:-0.855556 150:-0.699272 151:-0.692084 152:-0.591049 153:-0.805996 154:-0.0523756 155:-0.158025 156:-0.228196 157:-0.11491 158:0.121846 159:-0.878645 160:-0.842219 161:-0.830788 162:-0.873874 163:0.490741 164:-0.887713 165:-0.684236 166:-0.381928 167:-0.679012 168:-0.434641 169:-0.186992 170:-0.0925926 171:-0.699588 172:-0.890759 173:-0.580499 174:-0.62963 175:-0.641481 176:-0.668038 177:-0.68661 178:-0.707149 179:-0.904866 180:-0.948269 181:-0.137828 182:-0.405864 183:-0.121278 184:-0.428669 185:-0.237449 186:0.134156 187:-0.336626 188:-0.898148 189:-0.817525 190:-0.633488 191:-0.502646 192:-0.762963 193:-0.67284 194:-0.862963 195:-1 196:-0.902778 197:-0.938921 198:-0.937735 199:-0.909465 200:-0.207602 
-0.354098633410455 -0.82714400388007148 -0.14079970352264887 0.51559678272458564 0.91703235396639049 1:-0.747291 2:-0.0681931 3:-0.463415 4:-0.851538 5:-0.935753 6:-0.94835 7:-0.644599 8:-0.175483 9:-0.387534 10:-0.491289 11:-0.57259 12:-0.31558 13:-0.60152 14:-0.61826 15:-0.200058 16:-0.412643 17:-0.540941 18:-0.761672 19:-0.943179 20:-0.912429 21:-1 22:-0.982966 23:-0.925894 24:-0.82287 25:-0.840131 26:-0.69338 27:-0.821075 28:-0.680076 29:-0.609358 30:-0.570581 31:-0.382114 32:-0.121951 33:-0.579559 34:0.139791 35:-0.00779221 36:-0.185864 37:-0.533263 38:-0.554007 39:-0.80662 40:-0.98614 41:-0.916768 42:-0.724009 43:-0.737651 44:-0.417979 45:-0.131243 46:-0.499898 47:-0.592455 48:-0.623816 49:-0.466899 50:-0.427275 51:-0.524105 52:0.0439474 53:-0.621425 54:-0.491289 55:-0.601394 56:-0.901444 57:-0.927097 58:-0.900448 59:-1 60:-0.975628 61:-0.968072 62:-0.961175 63:-0.898911 64:-0.739974 65:-0.313321 66:-0.367015 67:-0.321719 68:-0.333836 69:-0.369338 70:-0.101286 71:-0.622426 72:-0.755731 73:-0.54007 74:-0.18016 75:-0.102594 76:-0.576544 77:-0.785963 78:-0.947134 79:-0.930011 80:-0.962874 81:-0.588826 82:0.158628 83:0.200348 84:-0.641309 85:-0.634611 86:-0.856272 87:-0.826381 88:-0.678049 89:-0.318145 90:-0.577457 91:-0.405281 92:-0.391705 93:-0.198258 94:-0.4277 95:-0.94516 96:-1 97:-0.941019 98:-0.976771 99:-0.923345 100:-0.9454 101:-0.908859 102:-0.675958 103:-0.726972 104:-0.791556 105:-0.317073 106:0.169736 107:-0.429443 108:0.190029 109:0.368951 110:-0.470093 111:-0.571883 112:-0.374813 113:-0.755801 114:-0.796167 115:-0.844217 116:-0.800896 117:-0.864648 118:-0.958188 119:-0.968351 120:-0.875341 121:-0.937295 122:-0.942509 123:-0.826399 124:-0.690592 125:-0.832989 126:-0.893421 127:-0.953542 128:-1 129:-1 130:-0.971329 131:-0.467596 132:-0.0480414 133:0.570783 134:-0.338415 135:-0.194062 136:-0.461092 137:-0.888502 138:-0.961364 139:-0.936152 140:-0.940216 141:-0.852893 142:-0.81782 143:-0.68071 144:-0.805414 145:-0.455547 146:0.0111273 147:-0.0699353 148:-0.682927 149:-0.565157 150:0.154293 151:-0.217873 152:-0.0381823 153:-0.726232 154:-0.559497 155:-0.719164 156:-0.816567 157:-0.875101 158:-0.966672 159:-0.977167 160:-0.957642 161:-0.955613 162:-0.952538 163:-0.634146 164:-0.70422 165:-0.185205 166:0.0734673 167:-0.184669 168:0.595614 169:0.223761 170:-0.51626 171:-0.660859 172:-0.69169 173:-0.921069 174:-1 175:-0.898815 176:-0.953155 177:-0.970517 178:-0.966939 179:-1 180:-0.979879 181:-0.852259 182:-0.928136 183:-0.954909 184:-0.905149 185:-0.949361 186:-0.852265 187:-0.913589 188:-0.597561 189:-0.244667 190:-0.0483449 191:0.403683 192:0.560976 193:-0.122822 194:0.0442509 195:-0.168308 196:-0.0670732 197:-0.844856 198:-0.859415 199:-0.770035 200:-0.932675 
-0.69187541826754406 -0.93471836598186109 -0.58363150067636671 0.65294632408382125 0.72979543406796021 1:-0.784415 2:-0.881459 3:-1 4:-0.909343 5:-0.716658 6:-0.579474 7:0.302128 8:0.148291 9:-0.198582 10:-0.48227 11:-0.621749 12:-0.387031 13:-0.666022 14:-0.660055 15:-0.213948 16:-0.731003 17:-0.835106 18:-0.919149 19:-0.985543 20:-1 21:-0.927972 22:-0.982664 23:-0.96229 24:-0.639458 25:-0.877972 26:-0.739953 27:-0.453709 28:-0.848055 29:-0.712867 30:0.20184 31:0.356974 32:0.340426 33:-0.144208 34:-0.16 35:-0.482785 36:-0.571429 37:-0.97361 38:-0.943262 39:-1 40:-0.968098 41:-0.961443 42:-0.935181 43:-0.8932 44:-0.736738 45:-0.765957 46:-0.363788 47:-0.559305 48:-0.436979 49:0.308511 50:0.0737259 51:0.856609 52:-0.173644 53:-0.783276 54:-0.585816 55:-0.704965 56:-0.974924 57:-0.962902 58:-1 59:-0.958092 60:-0.974748 61:-0.576996 62:-0.901216 63:-0.502738 64:0.130719 65:-0.550736 66:-0.484634 67:-0.362793 68:-0.447575 69:-0.593499 70:-0.704084 71:-0.359553 72:-0.254199 73:-0.297872 74:-0.749687 75:-0.759653 76:-1 77:-0.968881 78:-0.973099 79:-0.976257 80:-0.985067 81:-0.496951 82:-1 83:-1 84:-1 85:-1 86:-1 87:-0.889564 88:-0.789362 89:-0.219313 90:0.0750872 91:1 92:-0.52162 93:-0.654787 94:-0.741135 95:-0.804656 96:-0.789737 97:-0.86494 98:-0.550827 99:-0.72695 100:-0.886922 101:-0.963713 102:-0.926714 103:-0.826332 104:-0.693575 105:0.259752 106:-0.285714 107:-0.303191 108:-0.091653 109:0.475177 110:-0.244976 111:0.161887 112:-0.618237 113:-0.8067 114:-0.884752 115:-0.977351 116:-0.918946 117:-1 118:-0.87234 119:-0.935579 120:-0.87258 121:-0.781053 122:-0.414894 123:-0.671882 124:-0.275745 125:-0.150138 126:-0.728828 127:-0.929078 128:-0.868417 129:-0.564197 130:0.283891 131:-0.480733 132:-0.87363 133:-0.905963 134:-0.847961 135:-0.609415 136:-0.670922 137:-0.886525 138:-0.986893 139:-0.95668 140:-0.938772 141:-0.962015 142:-0.466945 143:0.00193424 144:-0.273868 145:0.0290551 146:-0.089682 147:-0.718592 148:-0.801418 149:-0.751064 150:-0.827241 151:-0.646224 152:-0.725916 153:-0.814252 154:-0.487642 155:-0.824113 156:-0.813315 157:-0.904664 158:-0.898242 159:-0.488758 160:-0.928703 161:-0.976166 162:-0.879241 163:-0.367021 164:-0.354948 165:-0.196672 166:-0.262562 167:-0.465248 168:0.0465165 169:-0.346134 170:-0.276005 171:-0.359 172:-0.592091 173:-0.75901 174:-1 175:-0.897021 176:-0.952325 177:-0.969995 178:-0.966353 179:-0.836045 180:-0.979153 181:-0.708146 182:-0.56117 183:-0.518148 184:-0.594563 185:-0.871158 186:-0.949882 187:-0.853428 188:-0.882979 189:-0.720464 190:-0.663121 191:1 192:0.0439716 193:-0.248227 194:0.180851 195:-0.407493 196:-0.636968 197:-0.789474 198:-0.767499 199:-0.713948 200:-0.975575 
